0.2656209171
0.5839138031
0.2978479564
0.1884631515
0.1201095358
-0.1228339970
0.1613522023
0.1074069366
0.1654485315
0.0570203289
0.1045506150
-0.0566092841
0.0009197575
0.0984112173
-0.0182292461
0.4470230341
0.0661474392
0.0430507734
0.0825693160
-0.0370954834
0.0919494629
0.6925092936
0.0011068286
-0.0750994906
0.0067814360
0.3471939862
0.1458270848
-0.0810334533
0.2889269888
-0.0583346672
0.1384336650
0.0843265578
-0.0017514670
-0.0399375260
0.0765347108
0.1175852641
-0.0443092138
0.1098440439
0.3754805624
-0.1135766581
0.1793916970
0.0715863928
0.0197682325
0.1374609023
0.0952502638
0.1600208431
0.3379040360
0.2624224424
-0.0488241091
-0.1998629123
0.1476162970
0.0832061693
0.0819185227
-0.0360456705
0.0533199795
0.3633968532
-0.1046683714
0.0453753546
-0.0549360774
0.1163370684
0.2210396081
0.0878280997
0.0027657594
-0.1084015146
0.2313796878
0.2802362740
0.1977475286
0.1786308289
-0.0336644500
0.0854239389
0.0452802256
0.4177559912
0.2070636600
0.0408721566
-0.1191375777
0.2407314032
-0.1026482508
0.4791204333
0.5112756491
0.2024675012
-0.0030702099
-0.0645048693
0.1702837348
0.0312178563
0.0776946321
0.0512483753
-0.0249057505
0.0967293009
0.1775348932
0.1252628416
0.2284895480
0.2149931937
0.8734888434
0.2887458801
0.0611964576
0.0186942555
0.1006457731
-0.0358922184
0.1396917403
-0.0076342733
-0.6617349982
0.1300006658
0.0588130020
0.0612621345
0.2144259363
0.1453616619
-0.1195367947
-0.0282832682
-0.0303167813
0.2593921721
0.1421357095
-0.3744889498
0.5247875452
-0.0494948626
0.0625842959
0.1819652319
0.1205804422
0.2372115701
0.7766499519
-0.3094148040
-0.1229035482
0.1278839707
0.2353129238
0.3365199268
-0.0739803910
-0.0510709547
0.0829109848
-0.0744147375
0.0674220175
-0.0044301399
0.1129221171
-0.0102916248
-0.1682779342
0.1241417602
0.0758974701
-0.0617316067
0.0994482487
-0.0964194536
0.2647506297
0.5968603492
0.1957351863
-0.0329650566
0.4445092678
0.0450798534
0.2412758172
0.6989730597
-0.0194537248
0.1546279192
0.1341579258
0.0222799815
0.1888469905
0.0891536400
0.1145536900
-0.0167260319
0.1167758927
0.0932204574
0.0631915182
0.2357149869
-0.0424064063
0.0507531576
-0.0356953703
0.0077350200
0.1988778710
0.1749167144
-0.1480752975
0.1624963284
-0.0347080454
-0.1972735524
0.2150114328
0.2608593106
0.1447402090
0.1805907637
-0.1395715475
0.4179606140
0.2178856134
0.1992609352
0.1138105839
0.0933644474
0.8426808119
0.7660101056
0.2998659313
0.0432767831
0.3881077468
0.2395064086
0.1768035442
-0.0940756947
0.5763514638
-0.0540006645
-0.0369544625
0.2280656993
0.3108919263
0.0800592601
0.0370060727
0.0501686707
0.0996846482
0.0751364231
0.6983482242
0.1906967461
-0.0180208348
-0.0492077805
-0.0121446075
0.6839930415
-0.0503023118
0.1066503450
0.1898992658
1.0390672684
0.1329440624
0.2070280463
0.1066248715
0.1762405932
0.0903026089
0.5461134911
-0.1332644820
0.0008817150
-0.1238443404
-0.5992941260
-0.1434510201
-0.1053803414
0.1291957498
0.3362859190
0.4975863993
0.0826192126
-0.1200172156
0.1776144803
0.3352934420
0.1858101189
0.1524144858
0.0611177012
-0.0222792458
0.0759718493
0.2007031888
0.2682248652
0.1017118767
-0.1534098834
0.0671492144
0.0516211428
0.0205190070
-0.0414359458
-0.0025778941
-0.0665379986
0.0101454100
-0.0778483078
0.1331196725
0.1119167879
0.0870535821
0.0598541908
-0.0439880118
-0.0856495202
-0.0309244078
-0.0112214265
0.3349688053
0.1224106029
-0.0813129321
0.7783370018
0.0119538419
0.0889185518
0.1775198728
0.7070539594
-0.6465640664
0.2281314880
0.1372200847
0.2408433110
0.1237565577
0.5263549089
0.0243264064
0.1045740843
0.1309332401
0.1038584039
0.2113216072
-0.1847788841
0.0282018352
-0.0937924162
0.0447353609
0.2342192382
0.0881458670
0.1178735346
-0.0810455084
0.2098462284
0.0837366208
0.1658710390
0.0376470312
0.0702329427
0.3631649315
0.0606990382
0.0084907264
-0.1933455765
0.2460796535
0.7487114668
-0.1061413288
0.0624204800
0.1818629950
0.3653596640
1.0386230946
0.3671112657
0.2350908518
0.1127096117
-0.0283829309
-0.0937880203
0.0514283441
-0.0336232781
0.4729523659
-0.0407865606
-0.0791643262
-0.1311637461
0.0943620875
0.2568232417
0.0283348002
0.0457463562
0.0553994849
0.4653228223
0.1322552562
0.0856610313
0.0934606940
-0.0706802309
-0.1862187088
0.0909812301
-0.1754524559
-0.0469411984
0.2077770978
-0.0845997781
0.2169428617
0.3882943690
0.8193902969
0.1178787723
0.1661864966
-0.0824725255
-0.0855696201
0.0498095751
0.0124779940
0.0003833231
0.2024829388
0.2722865045
0.0917940214
-0.0578122735
0.0605532527
0.2532356381
0.1209473461
0.2168482989
0.4104116559
-0.0390784107
-0.0597259961
0.1375754625
0.0146665582
0.0045638131
0.0566611812
0.3147529662
0.0816670209
0.0305608939
0.3191609681
-0.1689171940
0.0868174434
0.1233033389
0.0180065501
0.0808507875
0.1057140902
0.0842124671
0.1594267488
0.1813234836
0.3703032434
0.0799373388
0.1151602343
0.0931043401
0.1897969395
0.1344466209
0.0372574069
0.4533742368
0.1380619556
0.1901546419
0.0047088061
0.2919097543
0.5697940588
0.0181749631
0.0876220092
0.1374380738
0.0613549910
-0.0177389923
-0.0455912948
-0.1596355885
0.0301082637
-0.0970050767
0.0290989093
0.0332793146
-0.0596738011
-0.0237867311
0.2172307968
-0.0424865298
0.1398119330
0.0504413471
-0.0006779875
0.1939268410
0.4025864899
0.0759768337
0.4929692447
0.1200545952
0.2633444369
0.0253512654
0.2632972300
0.0766372606
-0.2614557445
-0.0689276904
0.2053841949
-0.0483157858
-0.0483408980
0.0044502709
0.4039802253
0.4655351341
0.0313289091
-0.0164649598
-0.0705490336
0.0715660453
0.2337896228
-0.0371732675
-0.0137024028
-0.0099859433
0.8845589161
0.5642259717
0.1064798534
0.2612855732
0.4264973998
-0.2816753685
0.2175062597
0.2021257728
-0.0235410128
0.3656701744
-0.0735532269
-0.0841646418
-0.0523023233
0.0058416985
0.0980163887
-0.0751072317
0.1668169945
0.2055820674
-0.1304647624
0.1124716178
0.1366639286
0.2790791988
0.0019633120
0.0981555209
0.0366364084
0.0832562298
0.0015009098
0.1261509210
0.0131449979
-0.0289223287
-0.5656684041
0.0621076263
-0.0130201858
0.2494093031
-0.0610815212
-0.1025556326
0.2278774977
0.0126676206
-0.0032141020
-0.0305931047
0.5865401626
-0.0279577058
0.7084591389
0.0392834879
0.1366117597
-0.0244464725
-0.0220159292
-0.1078315973
0.5488872528
0.0430089496
0.0427495092
0.0813032016
0.1291013956
-0.0384732783
0.1030629054
0.1855053008
0.3310192823
0.2151717693
-0.0623119995
-0.6959809661
-0.0786901191
0.6551796794
0.0616188496
0.8167540431
0.1617378294
0.0592769198
-0.0931634605
-0.1964047700
0.5213658810
-0.0325640067
-0.0973723978
-0.1310714781
0.0031464384
0.6696932316
0.1812324822
0.0223082602
0.6077767015
0.1521906108
0.0470196120
0.0482479632
-0.0228367262
0.2661212087
0.0495488085
0.1981971860
0.0982025042
0.0656376034
0.0674877763
0.2441941500
0.0106833437
0.1471748650
-0.0502819642
0.1600358486
-0.0849421173
0.2370244563
-0.0317987986
-0.0586676486
-0.0016760723
0.6195563078
0.0742277205
0.7168204784
0.1158211380
0.0504133701
0.5452588797
-0.1048316881
0.5056166649
-0.0910481587
0.0959963277
0.0568928383
0.1472426206
0.1331630349
0.1003023684
-0.1021133512
0.0876062438
0.1905030459
-0.0494011156
-0.1275884658
-0.1051689833
0.0563103296
0.5438938737
0.4458675385
0.4223766625
-0.0311798807
0.7529825568
0.1166800559
0.0705744252
0.0208464153
0.2281658500
-0.1284547746
-0.0720045194
0.1639409363
0.0467510149
0.6041932702
-0.0531239323
0.8376250267
0.1878593117
0.7353184223
0.1173407286
0.1633342355
-0.0939182416
-0.0915760025
-0.0269957762
0.1864485890
0.0063188225
0.2210348696
0.0610843338
-0.1660565436
-0.0207012892
-0.1382460147
0.0501004495
0.0570778437
0.1885509491
0.1772616953
0.1978843063
0.3656539917
0.3970907032
-0.0515185669
0.2407398969
-0.1242286116
0.1117264628
-0.3343605697
0.0105766281
0.1318467408
-0.0566039011
0.1670461595
-0.1380398721
0.2483255416
0.0681031719
0.8407970071
0.1761132330
-0.0837467313
-0.0426655076
0.0880442485
-0.1189544573
0.0117529966
0.1027360931
0.6184384227
0.1039298624
-0.0083309226
0.2441642135
-0.1007966101
0.0685622841
-0.1259053200
0.1148872152
0.0720948651
0.4250041246
-0.1704427600
0.4079722762
0.1550429314
-0.1369552165
-0.0704462454
0.1971238852
0.0735730529
-0.0615996905
-0.0286587160
0.3774544299
-0.0306086708
0.6290209889
0.2529786229
0.1270878166
0.1158151180
0.2399151325
0.1413715035
0.0524390377
0.0607288480
-0.0994648784
-0.0110679772
0.1841708273
-0.0746924803
0.0442296304
0.0738202035
-0.0891250521
0.5656922460
-0.0816835538
0.1040140763
0.1513667256
0.1057552397
0.0019514714
0.2875714600
-0.0127574429
0.0802521557
0.1485969275
0.3465698063
0.1846667081
0.5201270580
-0.0886403471
0.3415775895
0.0044300412
-0.0093057537
-0.0689440370
0.0008138822
0.1299300939
-0.1549773514
0.1079901159
-0.0165018607
0.3807164729
-0.0381553508
0.0965987518
0.1328394860
0.0485617630
0.1143437847
0.0466899499
0.1047716513
0.2763005495
-0.0556972958
0.0761779398
-0.1501111388
0.1726280451
0.1093607247
0.1350539327
0.0487461798
0.1449752301
0.0845067203
0.0857109204
-0.0933082774
0.1603231430
0.2107563913
-0.0123891793
-0.0846132189
0.3940605521
0.0787690803
0.2429710329
0.0477971956
-0.1027007997
-0.0784401298
0.1654959619
-0.0590781458
0.1252300441
0.0278626122
0.1084208712
0.1085488796
0.0186477751
0.3529881537
0.1743576527
0.7301806211
0.5425435305
0.0358471759
-0.0097920708
0.0255139749
-0.1460570991
0.0342613347
-0.0274392813
0.3028694093
-0.0567699820
0.7910922170
0.1565435827
-0.0477907956
0.0727200508
0.0379271731
0.0510728993
-0.0491060354
0.0480587780
-0.0974843577
0.6423878670
0.3485927880
-0.2021362931
0.2478443533
0.2175082862
0.1902561486
-0.0175209660
0.1184483841
0.0671000853
-0.0218806863
-0.0970000327
0.6242141128
0.1501764059
0.0422432832
0.7170738578
0.0389198437
0.0670329556
-0.0556250438
0.0390786715
0.0771791786
-0.0167619940
-0.0577274933
-0.0059011737
0.0416693613
0.8449100852
0.1880225092
0.3798039854
0.1094308496
0.0415517986
-0.0408646390
-0.0544358231
0.1799351424
-0.0629788414
0.0568634607
0.3226534724
0.0368787907
0.1107222438
0.0403850861
0.1278373599
0.0696650222
-0.0111374976
-0.1138266176
0.0991482511
-0.2441013306
0.1709047258
0.5261422992
0.2187091857
0.6585776210
0.1196724251
-0.0450294316
-0.0117393248
1.1062268019
0.1375449151
-0.0305192433
-0.0194100477
0.0373152047
0.1868167371
0.0367863178
-0.1072290614
0.0959112272
1.1467976570
-0.0191506725
