-0.0339028463
-0.0898890942
-0.0641134828
0.2469701618
0.1493376493
-0.0455740653
0.3422468901
0.2413500845
0.0048389747
-0.1000231653
-0.0314163193
0.5762264729
-0.0492442027
-0.0496544614
0.2666334212
0.2274725139
-0.0140600335
-0.0725210980
-0.0965134799
-0.0631381273
-0.0619436391
-0.0594335012
-0.0628595948
-0.0113565624
0.2264398336
-0.0602688342
-0.0917844176
-0.0391121246
-0.0462573320
0.3195421696
-0.0687309429
-0.0635195822
-0.1099343672
-0.1016326845
-0.0724537671
-0.0808074027
-0.0576943643
-0.0491842702
0.2479932159
0.2180800587
-0.0978875086
-0.0454349108
0.2871599793
-0.0504385307
-0.0896411389
0.2469643205
-0.0550470836
-0.0627440512
-0.0900699198
0.2322980314
-0.0082239378
-0.0338059701
-0.0755079687
0.5918504596
-0.0243164133
0.1900067180
-0.0429081358
0.0022093633
0.2098588496
0.2326680124
-0.0061510438
0.0120659610
0.0946527198
-0.0400439836
0.2019456476
-0.0945212245
-0.0674670041
-0.1018081829
-0.0128235025
-0.0633113459
-0.0770029649
-0.0505747162
-0.0237159673
0.2475049645
-0.0606521107
-0.0340254940
0.2707909644
-0.0926579684
-0.0737432241
-0.0714389607
0.3253019452
-0.0617014803
-0.0567602739
-0.0522556975
0.2344355583
0.2653816342
0.2123377472
-0.0250450075
-0.0688902438
0.1971899569
-0.0792933553
0.3396974504
-0.0487099141
0.2240969986
0.2808727324
-0.0046084411
-0.0501698852
0.2450764030
0.2266243100
0.2546549439
-0.1140281558
-0.0757078528
0.1914428025
-0.0514977835
-0.1038576066
-0.0564588122
0.2317920774
0.2504411042
-0.0608508065
-0.0958906412
0.2163976282
-0.0396037512
0.2691262066
-0.0245367978
0.0135136768
-0.0804832950
0.0030299863
-0.0333425216
-0.1016600877
-0.0557697117
0.2563198805
0.0127815213
-0.0341099240
0.2504691482
-0.0948283598
-0.0400859937
-0.0517516620
0.2988251150
-0.0693845078
-0.0246812794
-0.0621295832
-0.1035742760
-0.0820689201
-0.0395202972
-0.0348368213
-0.0258013010
-0.0444696434
-0.0947889835
-0.0646734536
-0.0680386275
-0.0613642484
-0.0416322611
-0.0734839737
-0.0989674032
0.2311965376
0.2185878009
-0.0582184643
0.1112232059
-0.0369957238
-0.0853753090
0.2416404486
-0.0824364498
-0.0674417913
-0.0564555153
-0.0682670772
-0.0587720349
0.0035588795
-0.0719032213
-0.1022902876
0.2043936998
-0.0218529571
0.2236687541
0.2653136849
-0.1910047829
0.2152596265
-0.0693981051
-0.0512663238
-0.0580595694
-0.0122811357
-0.1157023907
-0.0390562713
-0.0850819871
-0.1093853042
-0.0491203368
-0.0311560687
-0.0430873632
-0.0552803613
-0.0618129186
0.2704163194
-0.0232890043
-0.1428506523
-0.0903729647
0.5017710924
-0.0864374340
-0.1071016416
-0.0525248833
-0.0836488977
-0.0913549960
0.2318309247
0.2835991085
-0.0539730974
0.3038498163
0.2651162446
-0.0252237618
0.2478302270
0.0076184613
-0.0319811925
-0.1039558575
-0.0577059872
0.0445812866
0.2136206776
-0.0664208308
-0.0362088419
0.2982296646
0.2240863889
-0.0266336817
-0.0879503414
-0.0777384490
0.2231986374
-0.0384532139
0.3091352582
-0.0490017310
-0.1045236513
-0.1276057959
-0.0182959531
-0.0298271701
-0.0285822321
-0.1076504737
0.2364556789
-0.0814339444
-0.0428586937
0.2165981680
-0.0686253980
-0.0338530540
-0.0571344644
-0.0546163693
-0.0331561975
-0.0196319949
-0.0884707347
-0.0133918468
0.8831428885
-0.0085169487
-0.0990411714
-0.0597521365
-0.0641258359
-0.0715646371
-0.0447736941
-0.0570233837
-0.0550275333
1.0117357969
0.2340113670
0.1981810778
-0.0860280171
-0.0818219036
-0.0913665295
-0.0301421303
-0.0886518657
-0.0561727323
-0.0187557805
-0.0277134404
0.2733587921
-0.0701217949
-0.0333217904
0.2553114593
-0.0229827985
-0.0141165704
-0.0967598408
-0.0627236292
-0.0669205636
-0.0323685370
0.2285545468
-0.0603221208
0.2287095040
-0.0547656082
0.0640030950
-0.0627997369
-0.0708510205
0.2367688715
-0.0511289090
-0.0477818027
0.6260689497
0.2240083665
0.2289874554
-0.0669131726
-0.0195553061
-0.0347703956
0.5834459662
-0.0477117859
-0.0789546818
-0.0700647756
-0.1185407192
-0.0842858851
0.2181463838
0.2176615298
-0.0418110564
0.2065052539
-0.0555347465
-0.0339583606
-0.0225778241
0.2410925180
0.2124077231
-0.0622127615
0.2181226462
-0.0411530696
-0.1025632992
0.2367587388
-0.0717133954
0.2899382412
-0.0256871711
-0.0751658529
0.2343052328
-0.0145289060
-0.0444688126
-0.0646319091
-0.0623834394
-0.0674776137
-0.0872489139
0.2599603236
-0.1038025394
-0.0716122016
0.2273366153
-0.0675103068
-0.1086960435
-0.1584832221
-0.0836032033
-0.0871714726
-0.0533243418
0.2817983925
-0.0578725934
0.0392818302
-0.0488775149
0.2064578682
-0.1288033426
0.0210826956
0.2377132773
-0.0373498797
-0.0440411828
-0.1207064167
-0.0904062092
-0.0555108972
-0.0369571596
-0.0408230163
0.2454359680
-0.0038380257
-0.0643149763
0.2229555398
0.2702266574
0.2189086229
-0.0248307269
0.0829475969
-0.0261196215
-0.0669628605
0.2131716609
-0.0947964787
-0.0737344995
0.2610351443
-0.0062960233
-0.0300338008
-0.0019499147
0.2536425591
-0.0393639207
-0.0879284143
-0.0684585124
-0.0733808205
-0.0329216644
-0.0676683411
-0.0080803949
-0.0848014355
0.2381873131
-0.0831225365
-0.0866022557
-0.0761736482
0.4489794374
-0.0637519732
-0.1083411202
-0.0674047396
0.2989306450
0.0158651303
0.2764520943
-0.0106454073
0.2288351357
0.1560532749
0.2212458253
-0.0420689099
-0.0708052665
-0.0838277936
-0.0703063607
0.2812706232
-0.0068447059
-0.0976199135
-0.1056980863
-0.0765773505
-0.0245993249
-0.0080369078
0.1971201003
0.2139957547
0.2475934774
0.2433841079
0.2295083106
-0.1105976477
-0.0097686257
-0.1326729208
-0.0981047228
-0.0936765745
-0.0548603199
-0.0559388995
-0.0708171725
0.2147392333
-0.0304757357
-0.1090532094
-0.0065357848
-0.0382390246
-0.0521930121
-0.0595509373
0.7556931973
-0.0531826988
-0.0492522828
-0.0451941639
0.2500137091
-0.0565403327
-0.1310002655
0.2187559903
0.1062636971
-0.0092017893
-0.0247242674
0.2902371883
-0.0009871692
-0.0843265653
-0.0551610738
-0.0030879353
-0.0415508039
0.3101295829
-0.0341514125
-0.0076555917
0.0339171514
-0.0588198043
0.0534727499
-0.0528523810
1.0869113207
-0.0688098446
-0.0659936368
-0.1402036399
