-0.0581074767
0.2824254930
-0.0312232953
-0.0508542024
-0.0197713375
-0.0232986528
-0.0189423934
-0.0295419674
0.2838566601
-0.0105947284
0.2317596674
-0.0047659962
0.2600753903
0.2825008631
0.2348105460
0.2995856404
-0.0573949069
-0.0502498746
0.0302875508
-0.0051593785
-0.0356531665
0.2061575949
0.2211474031
0.2894889712
-0.0261423215
-0.0077673118
0.2690721154
-0.0029683514
0.2091065645
0.0315114185
-0.0525977686
-0.0069682728
-0.0559766330
-0.0412239060
0.2041317374
-0.0177734233
0.2416671067
0.2768624723
-0.0473990925
0.2579003572
-0.0248815194
0.3044177592
-0.0036983155
-0.0280018263
-0.0441257246
0.2512161434
-0.0169260595
-0.0037558256
0.0059911897
0.0269126371
-0.0541844741
0.2941221297
0.2771403491
0.2645705044
-0.0119491797
-0.0148830879
0.0171777532
0.2099760473
0.2325868458
0.2543255985
0.1950178444
-0.0174756441
0.0181703828
-0.0092123030
-0.0378036574
0.0233735498
0.2105917633
-0.0376845561
-0.0379008763
-0.0419744216
0.4744734168
0.2217649370
-0.0511947796
-0.0485523753
0.0060776412
0.5647422671
0.0153956227
-0.0361071452
0.0150030097
-0.0397465192
-0.0584675744
-0.0271938890
0.0159732252
-0.1168735400
0.2032654881
0.2479827702
-0.0427328721
-0.0116364835
0.0184349958
-0.0183516089
0.0162970237
-0.0554849803
0.2877069116
-0.0496178232
-0.0042134216
-0.0064664097
-0.0632469729
0.2239490598
0.0143760936
0.0115329772
-0.0200292952
0.0052291676
-0.0374132060
0.2733398974
-0.0234273821
-0.0172630493
0.0152415605
-0.0145975761
-0.0183872320
0.2609183490
-0.0629818887
0.2683265507
-0.0241703670
-0.0614323914
0.0066120080
0.0253588334
0.2395065427
-0.0510121919
-0.0137950918
-0.0547152720
0.2816979289
0.0077809514
-0.0475184172
-0.0565340780
0.0217584968
-0.0093049211
-0.0344832502
-0.0465350971
