0.1133334115
0.0916641131
-0.0421839803
-0.0698075220
0.1693770587
0.0806982815
0.0147959450
-0.1334640235
-0.0467420332
0.0888741910
0.0580769554
0.2522491217
0.0232003052
0.0520099215
0.0351703838
-0.0863954648
0.0202288833
-0.0505498871
0.1005889028
0.0296457056
0.0385320857
0.0841854960
0.1061748266
0.0255289450
-0.0745271593
0.0517578274
0.1086744741
-0.0570078455
0.1020786464
0.0783369094
0.1559623778
0.0434571393
0.0865633786
0.0292095207
0.1076552942
0.1632179022
0.0508111641
0.0755084828
-0.1435512900
-0.1710834950
0.0113032777
0.0219743829
0.0036443425
0.1146084890
0.0714331418
-0.0650374591
0.1199988797
0.1537588984
0.1041825861
-0.0965143070
0.0345429182
-0.0136835380
0.0016370390
0.1015002802
0.0650211051
-0.1178895459
0.1155009419
0.1354921460
-0.0703816414
-0.1719567776
-0.0434211604
-0.0276133455
0.1526735276
0.0133172665
-0.1474821568
0.1063763276
0.0149985719
0.0633448064
0.0807674378
0.0326593406
0.0859208554
0.0019924655
0.1279717833
-0.1382442117
0.0670362189
0.1675664485
-0.1273492128
0.0678421110
0.0791844577
0.1541090161
0.0922273621
0.0126429433
0.0610794201
-0.0000748215
-0.1133717671
-0.0648308098
-0.1496568769
-0.0396040529
0.0132029448
-0.1871595234
0.0218928270
0.0816359892
-0.0474707633
-0.1236683801
-0.0678102896
0.0433931276
-0.0334920734
-0.1220621169
-0.1645619869
-0.1139338836
0.1111577600
0.0660789683
-0.1340555549
-0.0135482550
0.0906963646
0.0474545695
-0.0785310417
-0.0885351151
0.0353195705
0.0205914248
-0.0830024853
0.1477533132
0.0819850564
0.0250723660
0.0124741551
0.1492726207
0.0098599279
0.0208847485
0.1163168252
0.0110631371
-0.0487938225
-0.0260496382
0.0313478298
-0.1610867977
0.0880737752
0.0316558145
-0.0361791886
0.0234104507
0.0595263653
0.1849317700
0.1127226353
0.0360900685
0.0144985579
-0.0497658215
0.0694675595
0.0370576829
0.0857813358
0.0875081569
0.0603227392
0.0912709534
0.0377667621
0.0075141299
0.0947757140
0.1125334203
-0.1025116965
-0.0839140713
-0.0093392571
0.1209815443
0.0674235299
0.0674007535
-0.0214843675
0.1004778817
0.1041948795
0.0334754139
0.1271760911
0.1584065855
0.0330293663
0.1066356748
0.0758975744
-0.1137726977
0.0139981238
-0.1325055808
-0.0717292130
0.1143212318
-0.1497368664
0.1037897244
0.0536061898
-0.0267981831
-0.0354017578
0.0266588964
0.0442194901
0.0696918443
0.0668708086
0.0498078912
0.1218022630
0.0102333035
0.0120148230
0.0779284537
-0.0620102696
-0.0440709926
0.0685122460
0.0705277398
0.2883759737
0.0783352703
0.0402229652
0.1334102452
0.1554921418
0.0545005687
-0.0780021176
-0.0925533026
0.0947662219
-0.0303006507
-0.0681388453
0.1242455393
-0.1347005814
-0.0139859319
-0.0121716121
0.0236640610
0.1451898366
0.1449995637
-0.1326228231
0.0050279824
0.0576510280
-0.0252487436
-0.1059819534
0.1425257027
0.1620916128
0.1221514121
-0.1555957645
-0.0170085225
0.0490974747
0.0765763000
0.0330287851
0.0731448084
0.0897773504
-0.0469068140
0.1089863256
0.0955194831
-0.1573625356
0.0464205742
0.1354690194
-0.0822704285
0.1597918421
-0.0333668254
0.0947898626
0.1023939624
0.1526066065
0.0936812013
0.1043739840
0.0469327345
0.0540458784
0.0570830368
0.0637757555
-0.0224043708
0.0319579169
0.0469248667
0.0511392839
-0.0325329900
0.0683290288
0.1024976149
-0.1204935461
-0.1408694685
0.0443255827
0.0324258134
0.0679882690
0.0377655476
0.1130996495
0.0748049542
-0.0204858817
0.1448468864
-0.1061967015
0.0497829616
0.0120060202
-0.0608632192
0.0530449413
-0.0462509766
0.0582949258
0.0763868764
0.1161955968
0.0359553471
-0.1136315167
0.0435661264
-0.0748081952
0.0504400805
0.1839152128
0.1016404703
0.0997189581
-0.1299507022
-0.0316908881
0.0146956882
0.0734490529
-0.0814729109
-0.1124912947
0.0375404507
-0.0400721133
0.0299642868
0.2351003438
0.1016837731
0.0411841609
0.0379842483
0.0965370312
0.0609707609
-0.0815673620
-0.1555508524
0.0074562933
-0.1756715626
0.0814961419
0.0091103697
-0.0313549824
-0.1054743230
-0.0928917006
-0.0564739220
-0.0946942270
0.0071992925
0.0462480746
-0.1445532739
-0.0172863826
0.1945904046
-0.0368904471
0.1129038036
-0.1175843105
-0.0585119464
0.1403970718
0.0225574300
0.0827164799
0.0465487689
0.0633032396
0.0553283542
0.0904709920
0.0624602139
-0.0884032995
0.0765592456
0.0330475084
0.1093436852
0.0023447245
0.1189391166
0.1573660225
0.0343455784
0.0508387201
0.1629215479
0.1619511396
-0.1534007490
0.0614785179
0.1551057547
-0.1662209779
0.1814972758
0.0330982618
0.0581627898
0.1808441728
0.0457162745
-0.0344642699
0.1169084609
-0.1347494870
-0.0238461420
0.0913292170
-0.1203978136
0.0049825953
-0.0122134034
0.1267201155
0.1277126968
0.0256100316
0.0140192164
-0.1106692180
0.0577038638
0.1303814650
-0.1520451158
-0.0273387432
-0.0195227787
-0.0050066942
0.0010117482
0.0522815399
0.0480116047
0.0918457285
0.0766309723
-0.0250235982
0.0059976778
0.0017901708
0.0559676848
-0.0747095868
0.0891811326
0.0942447260
0.0993451998
0.0686467290
0.0947955996
0.1007419899
0.0913104489
0.0182150882
0.0321200751
0.0151388217
0.0502001159
-0.1212740093
0.1513660103
-0.1733611673
0.0879729092
0.0084329033
0.0293761622
0.0909716189
-0.0508378148
0.0370443352
0.0987874418
0.0603764281
-0.0228525251
-0.0331596620
0.1417621076
-0.0559729785
-0.1453776807
-0.1541079283
-0.1676087677
-0.1403874755
0.0346585475
0.1767391562
0.0898597986
0.0425923243
0.0643251836
0.1311918348
0.0350429192
0.0246905629
-0.1026828140
-0.0022301592
0.0712747201
0.1233349219
0.1388841569
0.0624735579
0.0870232880
0.1811630577
0.0219538305
0.0402833894
0.1359417737
-0.1511518806
-0.0456078164
0.0694794506
-0.0895339102
0.1512508839
0.1731825471
-0.0193255618
0.2319322377
0.0086760418
0.0179259125
0.1544585973
-0.0248646103
-0.0477171838
0.0576793216
0.0124280518
-0.0402054973
2.5268144608
0.0901064053
0.2178361118
-0.0471159779
0.0656699836
0.0162814446
0.0538223907
0.0689833462
-0.0974123552
-0.1061447710
-0.0299214404
0.1644864380
0.0243273340
-0.0600703098
0.0911791995
0.1212140173
0.0357960016
-0.0408143550
-0.0670616627
-0.0585700087
-0.0225644652
-0.0476869829
0.1168388501
0.2003397048
0.0344271846
-0.0252581444
-0.0445651747
-0.0958261266
-0.0596626811
-0.0115964692
-0.0542342663
-0.0292212199
0.1721300185
-0.0499937125
-0.1254720837
0.0798139796
-0.0817787275
0.1715858281
-0.0708241016
-0.0568806268
0.0473297127
-0.0525025390
0.0043170578
-0.1919645667
-0.0275581274
-0.0638164133
0.2143457234
0.1816430539
0.0714565068
0.0054525286
0.0917776003
-0.1182689145
0.0314178690
0.1258442998
-0.0710516348
-0.1031992286
-0.0514483042
0.2191255689
0.0211298801
-0.0142310392
-0.0239934940
0.0840490460
0.1081437096
0.1742514521
-0.1231096387
0.0623636246
0.1530959755
0.2173874676
0.0255136471
0.0393859111
0.0963434577
-0.0472034886
0.2198265791
-0.0655169412
-0.0053687948
-0.0548325554
-0.0418661535
-0.0204929691
-0.0506597050
0.0045364355
-0.1103387997
0.1425991803
-0.0764380395
-0.0987434611
0.1440827399
0.0035949720
-0.0541200861
-0.0705744326
0.1577792913
0.0695848390
0.0375541784
-0.0403380878
0.2116742879
0.1874839664
0.2064197958
0.0127578434
-0.0309287049
0.2229601741
-0.0260853898
0.1432026178
0.0042529302
0.1849794239
0.1240473837
0.0039369524
0.0358456150
0.2319286615
0.1867943257
0.1505164802
-0.0042720432
-0.0335375443
0.1671133786
0.0114143603
-0.0193436667
-0.0370182432
0.1425176263
0.1697373092
-0.0721521899
0.0102441711
0.2042407840
-0.0760338232
0.1421874017
-0.0212287083
0.0330727659
-0.0858015567
0.0190836005
0.0370751768
-0.0450476222
-0.0323875025
0.1010385528
-0.0370282605
0.0108169504
0.1532337070
-0.0129384734
-0.0105823884
-0.0193168577
0.1071792543
-0.0099718366
-0.1509282887
-0.0469999388
-0.0080878092
0.0161449648
0.0555309132
-0.0606947355
-0.0162328091
-0.0529188551
-0.0663905218
-0.0377965234
-0.0850647911
-0.0900290236
-0.0023622601
0.0261848196
-0.0450764634
0.1760196835
0.1524784714
0.0484681614
-0.0282816533
-0.0426038764
-0.0357252397
0.1311289370
-0.0195841491
-0.0529890805
-0.0073325424
-0.0507265255
-0.1309739053
0.0014291499
-0.0426882543
-0.0332946889
0.2095835805
0.0258433241
0.2199542969
0.1993885189
0.0390235558
0.2121203542
-0.0345621146
0.0110415975
-0.0139179295
-0.0199488718
-0.0107145905
-0.0031655841
-0.0286732540
-0.0436652415
-0.0715131611
-0.0982270390
-0.0080073765
0.0191598348
-0.0623140335
0.0875129178
0.0251137316
0.0258869119
0.0133941434
-0.1104273275
-0.0774719492
0.0072954786
-0.0642986074
-0.1104190201
-0.0474529974
0.1263554394
0.1636366546
-0.0357713476
0.1238090470
0.0872579515
-0.0720030442
0.1764340252
0.0163438637
-0.0053335591
-0.0073955390
-0.1588664800
0.0390543155
0.1799676269
-0.0328403786
0.0065469611
0.0787586346
0.1757148355
-0.0890240818
-0.1746275872
-0.1290428042
0.1765938997
-0.0747818425
0.2056536674
-0.0378882810
0.0190941766
-0.0794013366
-0.0350214690
0.0092128934
-0.0903451443
0.0358884372
0.1482708305
-0.0641426891
-0.0736628026
0.2341894954
-0.0740546957
-0.0333796889
0.0388347059
-0.1061746478
-0.0755564496
-0.0291684028
-0.1153974235
-0.0138848741
0.1269108802
0.0030401754
-0.0658861399
-0.0076033813
-0.0653534606
0.0049428293
-0.0459832363
0.0166700948
0.0402357541
0.0646514744
0.1737253666
0.1668750644
-0.0658124983
-0.0251692049
0.0171811748
-0.0671323687
-0.1161246374
-0.0327553786
-0.0084061772
-0.1224609613
0.1275533885
0.0081212008
0.0580108613
0.1134520695
0.0239466783
0.0320455357
-0.0696031451
0.0255995784
-0.1197369918
-0.0111229494
0.1980047822
0.0107906712
0.2088007480
0.0233300701
-0.0927127749
-0.0255517885
-0.0343819447
0.1953854114
0.0217266120
0.0089213429
0.1054573357
0.1442232132
0.2005815357
-0.0411140509
-0.0291340370
0.0155180767
-0.0111761820
-0.0242184810
-0.0273971763
-0.0261472128
0.0764119551
-0.0117753064
0.1815177798
0.2033423185
0.0140671618
0.1968558580
0.0220789053
0.0252367295
0.0041431664
0.1315935701
0.1818285733
-0.0239540264
0.1693074405
0.0046741082
0.0297901053
0.1417382061
-0.0151773347
-0.0239816550
-0.0013563603
-0.0725198910
0.1766448617
0.0552859120
-0.0827202201
-0.0352592617
0.0347236544
-0.0738851279
0.0497593507
0.1947242171
0.0261654016
-0.1147185713
0.1926619858
-0.0946391672
0.0436758548
0.0633799136
0.0315332934
-0.0384801403
-0.0894220024
0.1147084609
-0.0144023718
-0.0413844660
-0.1762574017
0.2464501709
0.0367255136
-0.0963105783
0.1493111253
-0.1178777069
0.0336252525
0.0211103819
-0.1779261827
-0.0276614632
0.0344563089
-0.0223922171
0.1320958734
-0.0502966195
-0.0266280454
0.2253928930
0.1780621409
0.1640674174
-0.0816830173
0.0125204697
-0.0270064753
-0.0128499158
0.1745533794
-0.0463369228
-0.0399848334
0.1955436021
-0.0546406098
0.0346463881
-0.0291121360
0.1124400198
-0.0642122775
-0.0444189608
-0.0570241585
-0.0697127208
0.0208428632
0.0649043918
0.0424282812
0.0173421707
0.1594096273
-0.0778604895
-0.0909266099
-0.0889597833
0.1804254353
-0.0619635098
0.0193776451
-0.0027592843
0.0974488184
0.0393596627
0.0968638584
-0.0300437380
0.1828253716
0.0306905881
0.2069641352
-0.0433640964
0.0593864992
0.0328261629
-0.0439824648
0.1489877701
-0.0525803827
-0.0946722329
0.0172960050
-0.0199437812
-0.0335336328
-0.0982232615
0.2104623765
0.1499824524
0.1526475400
0.1991642267
0.1575712711
0.0133369323
-0.1214849353
0.0057985885
0.0036751539
-0.0178934187
-0.0220435224
-0.0478419773
0.0016096125
0.2092554569
0.0516803116
-0.0259184688
-0.0294814091
-0.1385447085
-0.0530422814
-0.0254468992
-0.0128063457
0.0261915531
-0.0679693595
-0.1681672782
0.2231942862
0.0272065364
0.0779329315
0.1617154777
0.0412937738
-0.1050613150
-0.0199591164
-0.0599108785
0.0039430764
0.0525969155
-0.0724371821
-0.0522289686
0.0444876030
0.1117988378
-0.0054166070
0.0379004553
-1.9704502821
-0.1155118942
-0.1132366955
-0.0169868711
0.1300158650
-0.0008059862
-0.0680745468
0.0369823650
-0.0553885028
0.0116715236
0.0388018303
0.0407285132
0.0040563229
0.0120818345
-0.0004394752
-0.0035127753
-0.0383650623
0.0070036524
-0.0257978644
0.0123447068
-0.0171268545
0.0150954733
0.0282266233
0.0297013093
-0.0467832796
0.0076242946
-0.0563315749
-0.0261227787
-0.0278174300
-0.0071021393
-0.0441254713
0.0004058797
-0.0362191275
0.0179548915
-0.0416636132
0.0312682725
-0.0362836346
-0.0263342466
0.0324418955
0.0017198399
-0.0287033468
-0.0004889594
-0.0055766888
-0.0423815399
0.0308962595
-0.0179176647
-0.0040616132
0.0085925115
-0.0128336819
0.0428721905
-0.0007888849
-0.0604925752
0.0058198292
0.0029758238
-0.0493037440
0.0242417362
-0.0516204014
-0.0388844274
-0.0058629145
-0.0180230625
-0.0176232960
-0.0291731786
0.0058206739
-0.0528933294
-0.0147618828
-0.0033519906
-0.0405277647
-0.0221109129
-0.0386870094
0.0125701139
-0.0435952432
-0.0014455498
-0.0293476488
0.0347180031
-0.0043801256
-0.0154720023
-0.0625350326
0.0079840589
0.0001535559
0.0008604005
-0.0144455163
0.0253783092
0.0128805302
-0.0173704010
-0.0035278897
-0.0428019352
0.0004479527
-0.0301777888
-0.0135099813
0.0031111203
-0.0331566781
-0.0415632650
-0.0631765947
0.0122520775
-0.0136495037
-0.0260467511
-0.0078856945
-0.0098828254
0.0128823193
-0.0433424376
-0.0313730985
-0.0487522781
-0.0211360976
0.0012588918
-0.0226991344
0.0140605131
0.0168629773
0.0201013703
-0.0418100953
-0.0182689633
0.0115477415
-0.0034023598
-0.0382607244
0.0225198865
-0.0088483226
0.0031224368
-0.0244043861
-0.0284828153
0.0265592672
0.0121285841
-0.0439036414
-0.0064502824
-0.0435785688
0.0115883593
-0.0142955203
0.0178958364
0.0360215157
0.0068253279
0.0206132717
-0.0195371117
-0.0012009485
-0.0420709215
-0.0003608446
-0.0092054950
0.0418872274
-0.0256845076
0.0300679989
-0.0196478777
-0.0267648734
-0.0497639924
-0.0111645730
-0.0460701846
-0.0581341498
-0.0114468802
-0.0231579877
0.0214600507
0.0376013033
-0.0146878902
0.0368415676
-0.0235590376
0.0092829354
0.0245118532
0.0244306643
-0.0266872998
0.0152257495
-0.0143950693
-0.0355329663
-0.0551720336
0.0451826602
-0.0398462452
-0.0227339808
0.0428323261
0.0309226383
0.0414006822
-0.0258938503
0.0010985668
0.0202148817
-0.0017578166
-0.0497195236
0.0071629542
0.0100730211
0.0254666805
-0.0089059267
0.0073973099
-0.0089347744
0.0227268524
0.0431207791
-0.0523653254
0.0413493589
-0.0090998132
-0.0231869202
0.0075637400
-0.0454643816
0.0034305900
-0.0024163499
-0.0298064426
0.0159055665
-0.0158499554
0.0128478864
0.0126604978
0.0174278542
-0.0049011558
-0.0140106864
-0.0124489525
0.0460331924
-0.0140077006
0.0202547796
-0.0228369255
-0.0127186505
-0.0424645729
0.0368610397
0.0187853668
-0.0465378277
0.0185859948
0.0357476138
0.0207913145
-0.0041646962
-0.0007258926
0.0287771225
0.0077426657
-0.0588268675
-0.0145664737
-0.0193001423
-0.0345509239
0.0112324730
0.0014874225
-0.0169894714
-0.0168600529
-0.0304005425
-0.0215441547
-0.0390315093
0.0394816548
-0.0083431043
0.0270815324
0.0241648313
-0.0213937350
-0.0000084430
-0.0328220800
0.0167986415
-0.0334082730
-0.0573707521
-0.0414177403
0.0208146889
-0.0555919595
0.0266276076
-0.0027028997
0.0394719541
-0.0289287232
0.0317668542
-0.0333267599
0.0132407304
-0.0477825850
-0.0414809659
-0.0279726926
-0.0216349661
0.0102577247
0.0132648097
0.0059998953
0.0044513522
0.0204086956
0.0131200161
-0.0005756058
0.0240800157
0.0093516763
0.0146134757
0.0141152414
0.0174346995
-0.0065872832
0.0291012060
0.0167251378
0.0441507660
-0.0098721106
-0.0474011563
-0.0227395333
0.0071521881
-0.0048821806
-0.0362215526
0.0200344063
-0.0343620330
-0.0218911991
-0.0591607951
-0.0393754877
0.0059148343
-0.0237299148
-0.0292116366
0.0192735754
0.0150024332
-0.0090576448
0.0344242342
-0.0389061905
0.0084229838
-0.0222019218
-0.0302772280
-0.0010435946
0.0291276909
-0.0527653582
-0.0410715453
0.0261656195
0.0307272449
-0.0527072735
0.0347443223
-0.0372656472
-0.0480093360
0.0210642852
-0.0582788549
-0.0441911928
0.0097492561
0.0114157693
-0.0536414608
-0.0312282480
-0.0525054932
-0.0458243079
-0.0006160348
0.0191285387
0.0363765396
0.0344205797
-0.0140388571
-0.0168620739
-0.0184858926
-0.0419327058
0.0260281973
0.0015148268
-0.0299854185
-0.0049891989
-0.0473985560
-0.0354666747
-0.0482356064
-0.0413598381
-0.0153439809
-0.0422878601
-0.0571269132
-0.0389435515
-0.0095429495
0.0042698109
-0.0276910514
-0.0074064946
0.0098324344
-0.0334379859
-0.0423194543
0.0220976844
-0.0165545437
0.0154579151
-0.0416873395
-0.0351234972
0.0145855490
-0.0230620671
-0.0269375555
-0.0478745587
0.0386390202
0.0046413899
0.0165998358
0.0385621004
0.0021609107
-0.0152366133
0.0136337075
-0.0169032533
-0.0378671065
0.0238527935
-0.0397572778
-0.0063327323
0.0138647845
-0.0412426181
0.0301489290
-0.0526536070
-0.0077357367
-0.0134756900
0.0091859419
-0.0194223542
0.0126235280
-0.0302941184
0.0415815003
0.0251717269
-0.0159467570
-0.0326223187
-0.0052820882
-0.0310632326
-0.0139548741
0.0438042209
-0.0028339191
-0.0426709242
-0.0063168313
0.0022668161
0.0174388830
-0.0412430093
-0.0006491428
-0.0228557996
-0.0237596408
-0.0492554568
0.0289302506
0.0052464902
-0.0043776627
-0.0565161258
-0.0463788994
-0.0342251621
-0.0057877959
-0.0024107061
-0.0333234482
-0.0306070819
0.0325844102
-0.0068267472
-0.0395849049
-0.0405353270
-0.0374631733
-0.0069861175
-0.0033060056
-0.0182716474
0.0280292016
-0.0120991413
-0.0444756299
0.0092565101
0.0198347494
-0.0121638048
0.0125554614
0.0064112451
0.0027331058
-0.0273715276
-0.0218989663
-0.0011739617
0.0057350891
0.0343363732
-0.0246019047
-0.0227740519
-0.0220133327
0.0247933529
0.0309347529
-0.0443441980
-0.0333092846
0.0234015547
-0.0430633649
-0.0314233154
0.0169556160
-0.0504749380
0.0226048492
0.0028657897
-0.0148849990
-0.0228819102
-0.0260181874
-0.0413444676
0.0240361504
0.0288709570
-0.0334168971
-0.0352722704
0.0332111530
0.0021786368
-0.0165102687
-0.0201630145
0.0098299747
0.0302850716
-0.0169595517
-0.0513311960
-0.0562426038
0.0119213630
-0.0043751225
-0.0611055717
-0.0447620898
0.0288741048
0.0148074729
0.0244685356
0.0389612876
0.0286556818
-0.0271763541
-0.0610016286
-0.0198117401
-0.0578894839
0.0235118475
-0.0302074719
-0.0204341523
0.0307013281
0.0192330386
0.0223051719
-0.0508042350
-0.0442754962
-0.0548083708
0.0275256373
0.0026423670
-0.0581924021
0.0116347726
0.0115780532
0.0078156088
0.0233255103
0.0031212803
-0.0136808204
-0.0108726239
0.0283181313
-0.0264497809
-0.0205992814
-0.0553813875
-0.0524763241
0.0339712948
-0.0121164098
-0.0152620794
0.0278706662
0.0029066978
-0.0397595502
0.0109432777
-0.0173678678
-0.0635795370
0.0196051300
-0.0204068720
0.0188180394
-0.0480071642
-0.0450144857
0.0068203434
0.0035144221
0.0082923416
-0.0343279690
0.0265539885
-0.0269836094
-0.0530331321
0.0007543266
-0.0304287523
-0.0369373970
-0.0476272330
-0.0012988411
-0.0327962674
-0.0236047897
-0.0048930682
0.0180068891
0.0291547049
-0.0419993512
-0.0394144580
-0.0096393861
0.0279580988
0.0335464105
-0.0595242195
-0.0400674976
-0.0343347453
0.0082583567
0.0177401751
0.0140949525
0.0195049215
0.0011411868
-0.0281224754
0.0134812891
0.0328254253
-0.0530427098
0.0028852273
0.0363895260
0.0377192385
0.0310156606
-0.0213765390
-0.0680893287
-0.0240123570
-0.0280300174
0.0286175851
-0.0052999705
0.0435472913
-0.0219965540
-0.0228230581
-0.0543059744
-0.0041098585
-0.0180419590
0.0072881575
0.0224355496
-0.0502847284
0.0379943214
0.0080839349
-0.0343947634
-0.0165569577
0.0232792478
0.0256545097
-0.0123181352
-0.0583376400
0.0399306901
0.0459416695
0.0073439735
-0.0030165873
-0.0448495001
-0.0519104525
-0.0212205704
-0.0571957342
0.0284336470
0.0214248598
-0.0430307463
-0.0316709839
-0.0355398692
-0.0458639637
0.0034223842
-0.0366110131
-0.0361081548
-0.0046524764
-0.0551108830
0.0168369263
0.0273141898
-0.0512646623
-0.0200704634
0.0162020642
-0.0076559107
-0.0319865495
-0.0234029070
-0.0154136205
-0.0408353359
-0.0287352446
0.0298511647
-0.0083356015
0.0151623702
0.0267154761
-0.0270516668
-0.0489365645
-0.0060813166
-0.0174789652
0.0075601395
0.0320505500
0.0275683515
-0.0413574167
-0.0196829960
-0.0235715695
-0.0436532646
-0.0406683311
0.0234276429
0.0190948434
-0.0123933619
-0.0299002919
0.0459547080
-0.0297121834
-0.0011299237
-0.0023738076
-0.0320808738
0.0054849796
-0.0136794420
-0.0356838070
-0.0362863950
-0.0128176576
-0.0248571150
-0.0462802202
-0.0289370865
-0.0362788513
0.0148911867
0.0021988018
-0.0246450230
-0.0493810624
0.0280676987
-0.0567715876
-0.0452913642
-0.0043896344
-0.0451370403
-0.0403110236
0.0179976150
-0.0487282574
-0.0208048467
0.0174551681
-0.0635464936
-0.0182767827
-0.0432283729
-0.0243524387
0.0114129782
0.0356709845
-0.0254822206
0.0117803672
-0.0472136699
-0.0414101370
-0.0474432111
-0.0147507191
-0.0079572974
-0.0210852996
-0.0266914610
0.0060812305
-0.0341712683
-0.0463035628
0.0385665558
-0.0444771685
0.0178106278
-0.0345926769
-0.0311938263
0.0058891666
0.0200675540
-0.0275981650
-0.0324003585
-0.0407305807
-0.0377471112
-0.0376506373
0.0124213472
-0.0525612310
0.0452882908
0.0268472042
-0.0090094293
-0.0272117537
-0.0440862402
-0.0459752120
-0.0426963717
-0.0743564144
-0.0281418189
0.0152754663
-0.0116540454
-0.0382924825
0.0298273228
0.0105051463
-0.0127420463
0.0099129705
-0.0542234145
-0.0203653965
-0.0379690975
-0.0109525714
0.0441060178
-0.0102957571
-0.0366960838
-0.0222011246
0.0032738943
-0.0218418296
-0.0322057717
-0.0252307616
-0.0620879717
0.0427810512
-0.0506146289
0.0086950194
-0.0338812135
-0.0267672874
-0.0421406887
-0.0026586805
-0.0433869734
0.0245172344
-0.0158156678
-0.0184723958
-0.0455959253
-0.0335215554
0.0226394068
-0.0120481979
-0.0427645445
0.0146879740
-0.0255270749
-0.0469548069
0.0090789460
-0.0459223613
-0.0508779101
0.0462703072
0.0077173077
0.0040127328
-0.0347485580
0.0283103213
-0.0416246019
-0.0237971563
0.0317149796
-0.0413676836
-0.0522907078
0.0165132917
0.0207852237
-0.0373257585
-0.0080482364
-0.0360772870
-0.0186461005
0.0420773216
-0.0207544081
0.0310653001
0.0122577101
0.0135464976
0.0156985857
0.0161325149
-0.0319419615
0.0457401536
-0.0325218141
-0.0527523383
0.0327396132
-0.0371097773
0.0146403983
-0.0186117645
-0.0089435847
0.0006321714
-0.0350393951
0.0241222270
0.0275573712
-0.0405994840
0.0101875290
-0.0269610751
-0.0229858067
-0.0401557460
0.0002953220
-0.0197518580
-0.0071693575
-0.0040027723
-0.0026361702
-0.0478582121
-0.0481074713
-0.0415901802
-0.0278944839
-0.0509487092
0.0251301285
0.0393026881
-0.0344865732
-0.0387983210
-0.0240397770
0.0184385069
-0.0425023250
-0.0123190228
-0.0074491464
0.0193071347
0.0350417718
0.0173330065
-0.0501577184
0.0182571616
-0.0478248782
-0.0161341466
-0.0092308773
0.0178828798
-0.0311413091
0.0166907348
-0.0517076664
0.0382630937
-0.0164160058
-0.0448063165
0.0132778287
-0.0074497601
-0.0485419407
0.0029182213
-0.0171326641
-0.0332936384
-0.0395872369
-0.0344113335
0.0162704475
0.0095078014
-0.0558806323
-0.0148189217
-0.0542305559
-0.0345205404
-0.0372796133
-0.0156632420
-0.0546449870
0.0216403697
-0.0442952663
0.0147458846
-0.0021215717
0.0406999774
0.0090465313
-0.0470479056
-0.0279599931
-0.0218908396
0.0252066050
0.0283037387
-0.0255298745
0.0090420209
-0.0280795731
0.0216442905
-0.0286624376
0.0363490544
-0.0243499503
0.0079983091
-0.0385407209
-0.0379877537
-0.0209029913
-0.0092942789
0.0063358941
-0.0118178800
-0.0521167889
0.0302398037
0.0388738811
-0.0008341470
-0.0455001928
-0.0487521365
0.0039981380
0.0128758326
0.0120593961
0.0240986962
0.0084326379
0.0097500412
0.0235532187
0.0045151911
0.0332904421
-0.0245608483
-0.0266628955
0.0089471005
0.0063145012
-0.0278249811
-0.0069758124
-0.0150378877
-0.0022219478
0.0203328319
-0.0260046422
0.0475966148
0.0235537142
0.0181155112
0.0470364280
0.0437309556
0.0142160198
-0.0054561310
0.0259907208
-0.0327236243
0.0080136750
-0.0471540503
0.0160149448
0.0162627585
0.0165067874
-0.0479877777
0.0037444122
0.0764724612
0.0897478908
-0.0172196738
-0.0713294968
0.1426557004
0.0786114931
0.0223380905
-0.0636580065
0.0278075226
0.1005532071
0.0764890462
0.1834994704
0.0324811302
0.0715456158
0.0474449210
-0.1319906116
-0.0217441488
0.0495161787
0.0900534764
0.0534884408
0.0735402480
0.0948990658
0.0344826244
-0.0253315568
-0.1352548897
0.0745980218
0.1151222736
-0.0402856991
0.1514502615
0.0517059937
0.1275352836
0.1019641533
0.0443481766
0.0242953226
0.0223981217
0.1226240993
0.0528687425
0.0259721782
-0.1392880231
-0.1677606702
0.0923578367
0.0048409733
-0.0556806251
0.0614683740
0.0844436660
-0.0294360947
0.0956477299
0.1199409142
0.0980245471
-0.1029546410
0.0044888677
-0.0132021541
-0.0416850485
0.1266208589
0.0433565304
-0.0997079313
0.1201205030
0.1342449933
-0.1017149091
-0.1249402761
-0.0150028048
-0.0110140303
0.0837049559
0.0318112485
-0.1555758566
0.0513375103
-0.0314728655
0.1104241237
0.0446807742
0.0458843186
0.0389373675
0.0183285419
0.1189054698
-0.1013460159
0.0828389004
0.1081080064
-0.0892374665
0.0762222260
0.0951295570
0.1028759405
0.0493869334
0.0910115391
0.0585028939
-0.0423203744
-0.1598304659
-0.0918181837
-0.1326608360
0.0350057222
-0.0098139457
-0.1355682909
0.1007001027
0.0237659775
-0.0058502345
-0.1562217623
-0.0571653657
-0.0393335111
-0.0273729637
-0.1361795664
-0.1625356674
-0.1140880808
0.1090176180
0.0529387146
-0.0994890556
-0.0220738780
0.0982906520
-0.0128297415
-0.1519405842
-0.1010001302
0.0506704859
0.0616216250
-0.1352632642
0.1123881117
0.0025808897
-0.0136276651
0.0113592809
0.1379785091
-0.0070911469
-0.0273470972
0.0619897731
0.0714925677
-0.0618371814
-0.0030264633
0.0942036808
-0.1402282864
0.0908946246
0.0892135799
0.0345856771
0.0368395261
0.0552488491
0.1279679090
0.1129927784
0.1106917039
0.0564222150
-0.0364011936
0.1454093307
0.0995890647
0.0945615023
0.0882301033
0.0443225466
0.0706573427
0.0886724070
0.0818823352
0.0637234524
0.0644928962
-0.1085065603
-0.1111908033
-0.0186871979
0.1794960499
0.0894034877
0.1013920382
-0.0503466502
0.0526945442
0.1086156070
-0.0287004504
0.1237438321
0.1768577397
-0.0316208862
0.1245774403
0.0732189938
-0.1620673835
-0.0298539735
-0.1466231346
-0.0840770602
0.0830735043
-0.1355370432
0.0687214136
0.0997980163
0.0130259739
-0.0077862609
0.0501154698
0.0915852711
0.1153519377
0.1184408143
0.0354520120
0.1058069989
-0.0049536368
0.0126631083
0.1240661368
-0.0149004683
-0.0152317397
0.0906917006
0.0890330598
0.2420843095
0.0579802021
0.0782287195
0.1257160306
0.1704315096
0.0771553069
-0.1256341338
-0.0772323981
0.0540867075
-0.0790637508
-0.0218821038
0.0601494424
-0.1007742584
-0.0372914150
-0.0108800204
0.0522576794
0.1116800606
0.1298628151
-0.1202319637
0.0598772280
0.0695571750
0.0118986387
-0.1676946282
0.1691963375
0.1443288028
0.1557770967
-0.0657380670
0.0566109307
0.0728903487
0.0856352001
0.0849582553
0.0921620280
0.1201934740
0.0282305703
0.1051543728
0.0242809877
-0.1285796165
0.0687794313
0.1599546075
-0.1356294453
0.1114766598
-0.0283226091
0.0819442496
0.0941842571
0.1545878947
0.0656177998
0.1003977880
-0.0336129628
0.1065136716
0.0224944018
0.0945254937
0.0439204648
0.0521038733
0.1016090885
0.0999803767
0.0266998839
0.0893699452
0.1491895467
-0.1412870586
-0.1489169151
0.1190555543
0.0152614154
0.0193546042
0.0986752659
0.1170154884
0.0795214698
-0.0327322483
0.1285439283
-0.1314370483
0.1196489036
0.0004096364
-0.0271660890
0.1003343463
0.0295748431
0.0810490176
0.0903173760
0.1811816394
-0.0228142925
-0.1136443242
0.0341336243
-0.1335704178
0.0639074296
0.1876504719
0.0369443037
0.0672682673
-0.1570192724
-0.0363602303
-0.0296278633
0.1241907999
-0.1201916784
-0.0497040488
0.0838244185
-0.0428901911
0.0009059930
0.1751170158
0.0342955478
0.0246305447
0.0645116195
0.0901431516
0.0297170132
-0.0807835460
-0.1234254166
-0.0159606785
-0.1349809170
0.0896370485
-0.0387992002
0.0098554539
-0.0936983675
-0.0904692933
-0.0403890833
-0.1002061069
-0.0443128571
0.0831732228
-0.1015780643
-0.0136143211
0.2069479972
-0.0199641529
0.1034922078
-0.1404030472
0.0132795880
0.1050098836
0.0841113254
0.0735669583
0.0806699395
0.0922290906
0.0414509736
0.0245989468
0.1187224910
-0.1436392069
0.1500970125
0.0372761637
0.0372713134
0.0773523003
0.1059482619
0.1018274128
-0.0160819199
-0.0354038514
0.1252101958
0.1403373182
-0.1420616060
0.0767633542
0.2073535472
-0.1387654543
0.1668696851
0.0516885966
0.0577142239
0.1763245165
-0.0006579445
-0.0091784326
0.1120767221
-0.0860089064
0.0439238884
0.0562560894
-0.1116492450
-0.0009554923
-0.0241382811
0.1049722061
0.1168728992
-0.0105568804
0.0206012316
-0.1373791099
0.0385565050
0.0814787298
-0.0757364780
0.0216871016
-0.0281516500
-0.0058897715
-0.0305440817
0.0783815384
0.0818938464
0.1131449342
0.0761201158
-0.0150192734
-0.0210216399
0.0083466331
0.1016655266
-0.1506416202
0.1392208040
0.0860551447
0.1086465493
0.0643694699
0.0723512918
0.0489807725
0.0346409790
-0.0046570967
-0.0333552845
0.0015245094
0.0587816797
-0.1347913295
0.1916557550
-0.1561310887
0.1139363945
0.0365144424
0.0724788085
0.1214328632
-0.0319708548
-0.0048421817
0.0561164171
0.0985489339
0.0426286273
0.0239996966
0.1679276824
-0.1260707080
-0.1424373090
-0.1379964203
-0.1614442766
-0.0796192884
0.0378315188
0.1730247438
0.0314808376
0.0246873442
0.0770103261
0.1334676892
-0.0324979313
0.0887159556
-0.1103790253
0.0260410197
0.0357920937
0.1663643271
0.1259750575
0.1138146967
0.0518372953
0.1470970213
-0.0145662343
0.1015482098
0.1309487671
-0.0728015900
-0.0320540555
0.0311623197
-0.0757531896
0.1343531311
0.1847288162
-0.0317759998
0.1797119230
0.0172851235
0.0938121080
0.0969521329
0.0502414517
0.0226816367
0.0537299402
-0.0675219297
-0.0331231803
2.5078694820
0.1598280668
0.2349517196
0.0221450627
0.1481777430
-0.0006764671
0.1194897890
0.1095125303
-0.0197866112
0.0280972868
-0.0211038273
0.0216728579
0.0074522858
-0.0499565974
-0.0005391099
-0.0276391953
-0.0327465087
-0.0099862693
-0.0296901371
-0.0094048865
-0.0275752284
0.0326681770
0.0378091633
-0.0278383903
0.0064640832
-0.0365334786
-0.0471419841
-0.0111405328
-0.0119223539
-0.0083584758
-0.0216679405
-0.0000516358
0.0024034113
-0.0204717480
-0.0321153551
0.0024734242
-0.0512565561
-0.0172339622
-0.0249064025
0.0388503447
0.0087812683
-0.0260493420
-0.0090715410
0.0327910744
-0.0245797280
0.0165831801
0.0215569641
0.0201330893
-0.0501201078
-0.0018522898
0.0062001930
-0.0285554584
0.0305199418
-0.0158109218
0.0221605562
-0.0408051796
-0.0166658219
0.0387448668
-0.0158313047
-0.0172285680
0.0468297414
-0.0189724676
-0.0068799653
0.0372741073
-0.0328037292
0.0032396920
0.0444773510
-0.0040717125
-0.0141461901
-0.0369707383
0.0218642727
0.0357934050
0.0037346941
-0.0075274208
-0.0133522665
-0.0279233791
-0.0071159052
-0.0504188836
-0.0309839305
-0.0086325528
0.0430548526
-0.0276614334
0.0099716894
-0.0149597470
-0.0039290213
-0.0121925119
0.0403248072
0.0423615873
-0.0227740761
-0.0181079730
0.0199408587
0.0246813223
-0.0170847364
0.0229747538
-0.0470821448
-0.0061504776
-0.0423427895
0.0186507702
-0.0321830139
-0.0290505514
-0.0400275029
0.0034081917
0.0175898448
-0.0231123827
0.0454510115
-0.0406456329
-0.0336550884
-0.0422185436
-0.0083796941
-0.0422522239
0.0265616011
0.0233438034
0.0016625328
0.0007270582
0.0302999765
0.0292477515
0.0276765414
-0.0264388788
-0.0376818851
-0.0197180193
0.0166763291
-0.0175034124
-0.0158592332
0.0338132381
-0.0085213231
-0.0117287003
0.0279847551
0.0420768633
0.0171486884
0.0161087178
-0.0474878252
-0.0267655123
0.0056825741
-0.0356781520
-0.0094512589
-0.0326045491
-0.0057714083
0.0450831316
-0.0023822263
-0.0464235209
0.0086596813
0.0100179203
-0.0307961125
-0.0423520580
0.0090798717
0.0118406815
0.0331103355
-0.0195299108
-0.0365838595
0.0279000960
0.0163767170
-0.0020033333
0.0239912290
-0.0109735765
0.0326578878
-0.0076305526
0.0370844379
-0.0018331563
0.0318702199
0.0189258996
-0.0448524356
-0.0475006141
0.0051459009
0.0124772387
-0.0000000786
0.0234391931
0.0139821088
-0.0206889734
0.0435410999
-0.0420608222
-0.0250173360
0.0447652265
-0.0291997213
0.0181546956
0.0436409041
-0.0387717038
-0.0195759758
-0.0264548380
0.0194349345
0.0426160097
-0.0330787748
-0.0088017397
0.0381652191
0.0342417173
0.0408140607
-0.0311787985
-0.0250648037
-0.0028267764
0.0343018919
0.0081486050
0.0359496027
0.0369075723
-0.0163455512
0.0083459504
-0.0019301340
-0.0492843613
-0.0263128951
0.0325172134
0.0018914891
0.0126649262
-0.0202314034
-0.0481227301
0.0108129270
0.0219539665
-0.0209321529
-0.0348460563
-0.0264892057
0.0213871542
0.0157727692
0.0239689685
0.0335296094
0.0111415079
0.0395905897
0.0064371172
0.0347796306
-0.0187642146
0.0091828676
-0.0455442145
0.0132521475
-0.0476094671
-0.0254298560
-0.0450075716
-0.0217228681
0.0293494351
-0.0473879762
-0.0296202358
-0.0125206532
-0.0080260457
-0.0106119970
0.0082257530
-0.0010513325
-0.0478786491
-0.0124033056
0.0480399169
-0.0451345593
0.0320013836
0.0395734906
0.0463906266
0.0160163324
-0.0429206043
-0.0129097309
-0.0265473295
-0.0009173444
0.0156470370
0.0254387278
-0.0473552756
-0.0151370000
-0.0155767696
-0.0361167081
0.0311178789
-0.0192194283
-0.0203008465
0.0025066005
0.0311612915
0.0044935597
-0.0173603296
0.0086847488
-0.0437746756
-0.0126324147
-0.0339671001
-0.0324896947
-0.0289049428
-0.0347782783
0.0399539247
0.0174567942
0.0010668691
0.0316680185
-0.0349694751
0.0062201158
0.0265624486
-0.0441848524
-0.0145625500
-0.0072067464
-0.0102060400
0.0158394743
0.0162465200
0.0244896226
-0.0475589298
-0.0455856919
-0.0434934385
-0.0370185822
0.0395991094
0.0347256027
-0.0148133589
0.0307158772
0.0346418880
0.0256452616
-0.0164859202
-0.0080344183
0.0393179171
-0.0283830203
-0.0236713961
-0.0342408121
0.0045910073
0.0041497159
0.0032424359
-0.0145864775
-0.0438006334
0.0253666751
-0.0412147865
0.0252627842
-0.0161658004
-0.0131783048
-0.0459217951
-0.0128239216
-0.0514074638
-0.0201539174
0.0227998681
-0.0212560855
0.0024770233
0.0093168933
-0.0141030345
-0.0068460191
0.0407470055
-0.0202544890
-0.0211478844
-0.0419690683
-0.0413731039
0.0464575961
0.0129236821
0.0364041999
0.0212681759
-0.0453886725
0.0059933877
-0.0042902571
0.0016527907
-0.0393180028
-0.0168603603
-0.0475346074
0.0449200124
-0.0388799831
-0.0272281636
0.0145582370
-0.0464804918
-0.0371373743
-0.0455848426
0.0078190435
-0.0087304441
0.0053372146
0.0159173775
0.0241423361
-0.0424223021
-0.0399888605
-0.0443884730
0.0050948467
0.0026927253
0.0288805272
0.0405674279
-0.0020480028
0.0191950407
-0.0324855186
-0.0242094174
-0.0211122744
-0.0200809035
-0.0476234183
0.0283642076
-0.0071795424
0.0311729237
0.0337241180
-0.0064102435
-0.0142880902
0.0071231513
0.0391278304
-0.0432824418
-0.0245193671
0.0317062810
-0.0378700607
0.0181931034
-0.0278940815
0.0276476201
0.0429703221
0.0317786783
0.0145556387
-0.0466823764
0.0201339982
-0.0067208386
0.0164698325
-0.0383043699
-0.0450088941
-0.0164253339
0.0454624109
-0.0371564031
-0.0413139164
0.0402413458
-0.0415775143
-0.0136562353
0.0165211707
-0.0194444433
0.0075441822
-0.0300419927
-0.0157547444
0.0315806866
0.0166957490
-0.0403980091
-0.0014354548
-0.0092405975
-0.0256722737
-0.0256486963
-0.0320183858
-0.0300042126
0.0301388241
0.0359267406
0.0096560903
0.0251713675
0.0400010534
0.0458996035
-0.0151837021
0.0023247716
0.0436627381
-0.0336171351
-0.0042982087
0.0111797918
-0.0433458425
-0.0407531969
-0.0155824311
0.0235583857
0.0248817857
-0.0007805340
0.0404747166
-0.0099071981
-0.0057384926
0.0364366844
0.0278614052
-0.0232883506
0.0432698503
-0.0259190015
0.0109511996
-0.0209969822
0.0268006045
0.0376564339
0.0045253299
0.0478792526
-0.0384157635
0.0211310722
0.0377275944
0.0309075527
-0.0312479082
-0.0118394783
-0.0249278136
-0.0263303742
0.1052554697
0.0942214951
0.0038961431
-0.0950391367
0.1131082177
0.1372354031
0.0499665923
-0.1215314791
-0.0378412306
0.0642544702
0.0804337412
0.2619743645
0.1048599780
0.0782466158
0.0791000575
-0.1229719147
0.0245975237
0.0173291080
0.0437926091
0.0504611507
0.0605214015
0.0840300843
0.0690655932
0.0296772793
-0.1353131086
0.1237573624
0.0900317356
-0.1009224206
0.1412306577
0.0480823219
0.1637201756
0.0449147075
0.0774326771
0.0260347687
0.0496653765
0.1485022008
0.0732956454
0.0191726703
-0.1460682750
-0.1225771755
0.1045888811
0.0170827284
-0.0455862321
0.0944086760
0.0093381312
-0.0701506659
0.0648674592
0.1363787055
0.0649745166
-0.0988850519
0.0155982971
-0.0033666785
0.0405753329
0.0770163462
0.0801546052
-0.1386779547
0.1851340085
0.1202456430
-0.0965844095
-0.0891766697
-0.0662609860
-0.0226045791
0.1318056732
0.0599605255
-0.0834039450
0.0865996107
-0.0168497656
0.0774536580
0.0791738108
0.1152214184
0.0284355301
-0.0364392512
0.0660440624
-0.1413223296
0.1420963258
0.1694489866
-0.1216930449
0.0795339793
0.0401963368
0.1170884073
0.0903346464
0.0551135950
0.0591126643
-0.0415485390
-0.1116600558
-0.0999487713
-0.1702958196
0.0130503420
-0.0341083817
-0.1715654731
0.1006663218
0.0497864746
-0.0168720130
-0.1705803722
-0.0551235937
-0.0019466033
0.0408366807
-0.1095737442
-0.1370101869
-0.0937722847
0.0596651956
0.0873903856
-0.0885690302
-0.0286890157
0.0709582642
-0.0162245706
-0.1139706746
-0.1421399415
0.0898303688
0.0878403783
-0.1414422095
0.1532393694
0.0739621520
0.0060224980
-0.0013036072
0.0678818077
-0.0348373353
0.0395270921
0.0901713148
0.0010076750
-0.0645571724
-0.0221937075
0.0902537555
-0.1098404825
0.1023880318
0.0333008878
0.0432799086
0.0107747708
0.1078008115
0.1829209626
0.0888890922
0.0744530931
0.0861053690
-0.0581447966
0.1048457846
0.0497057065
0.0531875007
0.0254277550
0.0441378355
0.0639832616
0.1069910973
0.0104803545
0.0790829882
0.0625846609
-0.0396088623
-0.1386079192
0.0089022666
0.2035048902
0.1107179224
0.0253354404
-0.0498550683
0.0470666215
0.1012151316
-0.0139854234
0.1337407678
0.1181935072
0.0144339763
0.1391095370
0.0641775876
-0.1480248719
0.0458745435
-0.1638550907
-0.1522575617
0.1185105667
-0.0995881855
0.0518965162
0.0653871745
-0.0201773271
-0.0053825821
0.0616546087
0.0888305679
0.0872930810
0.0613873005
0.0424504578
0.0686411932
0.0584918372
-0.0097892955
0.1282716990
-0.0643738061
-0.0416919366
0.0161333736
0.0252329670
0.2377557755
0.0990518257
0.0325554609
0.0436208695
0.1846461445
0.0651814416
-0.1092720479
-0.0529173687
0.1118174195
-0.0294650439
-0.0041408753
0.0646093190
-0.1052772030
-0.0471175574
0.0475798361
0.0314248465
0.1141321659
0.1323486418
-0.1042568460
-0.0113042602
0.0540886596
0.0108416732
-0.1753052622
0.1645589620
0.0960906893
0.1207398251
-0.1482725292
0.0548508838
0.0302568935
0.0754616708
0.0569140762
0.1063133255
0.1131861135
-0.0115653547
0.1873086542
0.0387635753
-0.1344556510
0.0678212717
0.1029759571
-0.1526883543
0.1549935639
0.0055622575
0.1025354043
0.0920847282
0.1498057991
0.1449735165
0.0962812379
-0.0290323328
0.1092537344
0.0500415936
0.0281980895
0.0334447138
0.0335437804
0.0466249995
0.1195007637
-0.0646955073
0.0820783079
0.0907993987
-0.1073619351
-0.1245789677
0.1156859249
0.0375304744
0.0852236003
0.0774600506
0.0851619393
0.0588421375
0.0192602519
0.0918074399
-0.1144963130
0.0318889357
-0.0300221704
-0.0081404289
0.0708252490
-0.0456304401
0.1009094119
0.1221714094
0.1063613221
0.0543853082
-0.1314830333
0.0452811904
-0.0523591153
0.0510481447
0.2139264345
0.0911225677
0.0629995093
-0.1531654298
0.0292356983
0.0193007477
0.1374358982
-0.1560417712
-0.1271857321
0.0240402631
0.0333935842
0.0454304591
0.2195577323
0.0516890362
0.0516895168
0.0228148531
0.0784237459
0.0509067401
-0.0759959444
-0.1050188541
0.0078380220
-0.1387730837
0.0568456948
0.0121115074
-0.0381298810
-0.1631700844
-0.1568681598
0.0117292628
-0.1164955199
-0.0304277074
0.0210796837
-0.1190198883
0.0007876275
0.2327071130
-0.0370743126
0.0523573197
-0.1269257963
0.0291615073
0.0649305433
0.0437868461
0.0282272436
0.1259766817
0.0378603265
0.0526720248
0.0693908781
0.0726982132
-0.0911581516
0.1632642597
0.0919114947
0.0953958780
0.0934917778
0.0729865134
0.1182688549
0.0323590487
0.0106812054
0.1731821895
0.1201569960
-0.1107949018
0.0547558963
0.1404706687
-0.1030311435
0.1345741898
0.0018191586
0.0800738409
0.1365436912
-0.0187882781
0.0083179846
0.1158304214
-0.1243049428
-0.0263786856
0.0927856192
-0.1067773923
-0.0514195450
0.0135038709
0.1400051266
0.1454114914
-0.0225792844
0.0205478147
-0.1387594044
0.0522699654
0.1309982836
-0.0755029693
0.0340849273
-0.0402132310
-0.0166929588
-0.0459300205
0.0773874223
0.0549983308
0.0427500531
0.0898436084
-0.0254196357
0.0026508332
-0.0104378620
0.0588790439
-0.1364762187
0.1414538473
0.0909813717
0.1248654872
0.0418454483
0.0934866443
0.0393584594
0.0296416674
-0.0484945253
0.0320587605
0.0308312569
0.1225632876
-0.1179711893
0.1200031340
-0.1216175258
0.0386609584
0.0548387244
0.0347446576
0.0756046250
0.0161848515
0.0025950153
0.0573426448
0.0761240497
0.0127687007
0.0056898156
0.0929475501
-0.0860709548
-0.1289800256
-0.1502595842
-0.0872825980
-0.1641188562
0.0542190149
0.1537271142
0.0864199251
0.0751137286
0.0859156176
0.0982687175
-0.0017521631
0.0546483807
-0.0933019072
-0.0298899617
0.0445732325
0.0959190503
0.1100491956
0.0506436750
0.1038211957
0.1849981099
0.0338474885
0.0694799647
0.1323400885
-0.1717716008
0.0197038632
0.0954074189
-0.0729584545
0.1808553934
0.0978733525
0.0469064042
0.1744225174
-0.0290245246
0.0553117990
0.0637743697
0.0374892168
-0.0405987464
0.0150502436
-0.0282681007
-0.0118850889
2.5283060074
0.0825325996
0.1998477131
0.0070413626
0.0889170468
0.0428247079
0.0735203624
0.0173207130
0.1349836439
0.0935045704
-0.0004478693
-0.0797449648
0.1714636981
0.1547638923
0.0343778655
-0.1120620519
-0.0112358881
0.0494436137
0.0608303025
0.1973777562
0.0986842141
0.0957396030
0.0743584111
-0.1147182658
-0.0081331031
-0.0381455943
0.0869387984
0.0591251403
0.0463067889
0.0376680084
0.1023880020
0.0323879123
-0.1254174709
0.1110061109
0.1378854811
-0.0425164029
0.1375769824
0.0929091945
0.0831349343
0.0787107795
0.0914430469
0.1131082848
0.0828469619
0.1002680808
0.0203895736
0.0711218640
-0.1588789672
-0.1761096269
0.0447011702
0.0443819612
-0.0455201045
0.0807158723
0.0323085114
-0.0916855410
0.1388766766
0.1548645794
0.1046907902
-0.0687415004
-0.0397547558
-0.0067112115
-0.0483810380
0.0791534707
0.1057764217
-0.1542315185
0.1686709225
0.0831093267
-0.0654716343
-0.1603397280
-0.0767283514
-0.0584522709
0.1164691746
-0.0117601557
-0.1095858887
0.1269088387
-0.0379802175
0.0373638906
0.0774973407
0.0530492440
0.0425309874
0.0028952435
0.1278108060
-0.1251405329
0.1226930246
0.1476221979
-0.1035227552
0.0965045169
0.1301416904
0.1478139758
0.0291987062
0.0649308115
0.0674873143
-0.0216290466
-0.1286547482
-0.0994571522
-0.1687369049
-0.0064982842
-0.0356745943
-0.1469232887
0.0512633957
0.0181253050
-0.0703059733
-0.1537797004
-0.0655923933
0.0015443263
0.0101365261
-0.1077055112
-0.0795844942
-0.0924142897
0.0919261426
0.1142601520
-0.1628613621
0.0144612109
0.0759858191
0.0397756770
-0.1687167585
-0.1359057575
0.0383065417
0.0678624660
-0.1443408579
0.1123274937
0.0021343301
-0.0002257543
-0.0015953926
0.1291298121
-0.0403331593
-0.0355073065
0.0769846514
0.0044697481
-0.0561337620
-0.0080729434
0.0985189155
-0.1277274787
0.0391835719
0.0948637426
0.0389839523
0.0155567918
0.1197272167
0.1556468308
0.0416546501
0.0503732450
0.0151725281
-0.0077526425
0.1452067047
0.0605205446
0.1022593528
0.0818425566
0.0954362080
0.1093916893
0.0425443687
0.0807271004
0.0422489569
0.0504391789
-0.0937767848
-0.1176421866
-0.0174746327
0.1800979525
0.0860458463
0.0780331194
-0.0641226396
0.1041641757
0.0437967703
-0.0406163596
0.1242128015
0.1207709983
-0.0319950655
0.1138614714
0.0822740048
-0.1442766637
-0.0270643998
-0.1495321393
-0.1365937293
0.0437354110
-0.1150888205
0.1034130082
0.1094963178
-0.0269134045
-0.0434547588
0.0913695991
0.0861029699
0.0739665404
0.1001867950
0.0174757093
0.1267546564
-0.0036956510
-0.0042285235
0.1118300110
0.0143003734
-0.0184184182
0.0371245630
0.0433544405
0.2200012207
0.1170026883
0.0361949913
0.1259855032
0.1889660805
0.0929882750
-0.0496021360
-0.0140541429
0.0861439556
-0.0209254604
-0.0416758470
0.0869169831
-0.0970859975
-0.0358069055
-0.0092862882
0.0989634991
0.1365123391
0.1233649477
-0.1199959219
0.0558226779
0.1012848988
-0.0267709177
-0.1202182621
0.0946353897
0.1361021847
0.1122866571
-0.0838997737
0.0054386430
0.0389150195
0.1382389963
0.0811979100
0.0809610114
0.0868155509
0.0449854173
0.1508659124
0.0287402216
-0.1502902210
0.0888358951
0.1048728451
-0.1464926898
0.0746623427
0.0378671959
0.1055889204
0.1520573497
0.0864294469
0.0799636170
0.1141264588
0.0436282828
0.1417301744
-0.0127201602
0.0739234686
-0.0067339311
0.0725348592
0.0962032303
0.1272657514
-0.0111661656
0.0961570963
0.1079473197
-0.0981972441
-0.1159293577
0.0594136640
0.0272221100
0.0513328500
0.1221513599
0.0751802400
0.0410872549
-0.0365553685
0.1252224892
-0.0710389018
0.0975644663
-0.0491091050
-0.0055129994
0.1277963817
-0.0416124538
0.0785845891
0.0736743137
0.1579168439
0.0027301575
-0.1737596840
0.0085404357
-0.0988116637
0.0577395111
0.2537970245
0.0596463569
0.0440052338
-0.1249579266
0.0404430777
-0.0115278447
0.0481436253
-0.0693726689
-0.1244216710
0.0461165160
0.0075520729
-0.0280152429
0.1811349988
0.0457925051
0.0437584780
0.0489640795
0.1047497168
0.0620579757
-0.1204113364
-0.1349408925
0.0355773084
-0.1724347174
0.0741119683
-0.0312045459
-0.0197343174
-0.1214936227
-0.1006406173
-0.0399143137
-0.1289680153
0.0151381809
0.0911661759
-0.0840265378
0.0044104466
0.1894422621
0.0105536850
0.0697382167
-0.1183035225
0.0031542510
0.1285733134
0.0774237216
0.0643642694
0.1002793983
0.0780296549
0.0479843542
0.0909129828
0.1335745007
-0.1450663954
0.1339017898
0.0705646127
0.1129734069
0.0738889799
0.0950813293
0.1773050427
0.0238195583
0.0241748504
0.1085976958
0.1446967125
-0.1869882196
0.0386142023
0.1463932246
-0.1311971992
0.1463629007
-0.0148645546
0.0547973514
0.1896580011
-0.0238225907
-0.0194741841
0.0424539633
-0.1118273139
0.0389259681
0.0774639249
-0.0857055336
-0.0319709443
0.0305816289
0.0628919154
0.1460853517
0.0359088257
0.0188871901
-0.0645900667
0.0880901739
0.0583427399
-0.1607584208
-0.0327781327
0.0157514513
-0.0214304496
-0.0482602604
0.0903174505
0.0311410557
0.0506945029
0.0373366289
0.0009191956
0.0093586948
-0.0137146385
0.0903109908
-0.0912382677
0.1259718537
0.0623797588
0.0421373807
0.1304402202
0.0238791890
0.0418025367
0.0216405969
-0.0110248225
0.0403332934
0.0236986056
0.1346650422
-0.1561820358
0.1332020909
-0.1634036452
0.0791567639
0.0116666835
0.1111900806
0.1189637035
-0.0143238287
0.0054605221
0.1250709891
0.1007736176
-0.0171232466
-0.0012209394
0.0971500054
-0.0529542305
-0.1226902157
-0.1142121106
-0.1393241286
-0.1630695611
0.0628263429
0.1931591928
0.0492239185
0.0938710645
0.0876506418
0.0824674368
0.0199208893
0.0824823156
-0.0894046724
0.0027312676
0.0706214160
0.1659011543
0.1085211784
0.1010701358
0.0783432722
0.1968093067
0.0021655860
0.0402312391
0.1485054791
-0.0820967108
-0.0345797054
0.0753266290
-0.1093216240
0.0946308225
0.1631983221
-0.0247962382
0.2051972896
-0.0130031630
0.0949460045
0.1380235702
-0.0098933550
-0.0029611061
0.1042313725
0.0086579146
-0.0324131735
2.4939951897
0.0909732431
0.2175386548
0.0062270956
0.1195349172
0.0270366240
0.1277454942
0.0355366878
-0.1030086353
-0.0295744278
0.0192502178
0.1680144668
0.0455240384
-0.1296682954
0.0756611153
0.1254412383
0.0112331677
0.0315758735
-0.0531220585
-0.1349339038
-0.0078862673
-0.0044412790
0.1741991639
0.1878051758
-0.0216644853
0.0318398699
0.0440334566
-0.0858225971
-0.0440295562
0.0370137095
-0.0190123077
-0.0011864828
0.1268806607
-0.0469853804
-0.1147182062
0.1097002029
-0.0855913460
0.1371860206
-0.0976364315
-0.0375042148
0.0035168373
-0.0362888761
-0.0240766797
-0.1613042653
-0.0525347926
0.0098872753
0.1426368207
0.2055920362
0.0084487982
-0.0203164276
0.0733996928
-0.0641166419
0.0134058120
0.1887194216
-0.0901561081
-0.1408650279
0.0220297426
0.1784998477
0.0177277792
0.0027189616
-0.0103703095
0.1474668086
0.0624274686
0.1936429739
-0.1026181057
0.0356552713
0.1952113658
0.1839831769
-0.0200148206
0.0456448495
0.0997813717
0.0226470325
0.2283275425
-0.1138490140
-0.0052475105
0.0262310561
-0.0307978392
-0.0982555747
-0.0551679209
-0.0306940116
-0.1095208600
0.1383987069
-0.1188229099
-0.0915712565
0.1302751452
-0.0256145522
-0.0117595242
-0.0537818894
0.1655647755
0.0379545465
0.0365936346
0.0229653623
0.2232620716
0.1918074340
0.2184814662
-0.0303006545
-0.0377718508
0.1898716539
0.0421451889
0.1206191778
0.0384577848
0.2050750703
0.1669453382
0.0148150269
-0.0397027954
0.2128174305
0.1957448274
0.1756553799
0.0182695147
0.0121846600
0.2157413363
0.0460944846
0.0395861529
-0.0116303563
0.1658717692
0.1960102320
-0.0509467162
-0.0068359356
0.1584554613
-0.1350813657
0.1739784181
-0.0123577062
0.0220574327
-0.1180494353
0.0454173125
0.0192097314
-0.0244698413
-0.0150387166
0.1517861187
-0.0346113071
-0.0071206200
0.1859393418
0.0272514727
-0.0173169840
-0.0309664086
0.1511107385
-0.0781523660
-0.1522211432
0.0083019473
-0.0315439031
0.0108249309
0.0177462678
-0.1251699328
-0.0305485874
-0.0675429776
-0.0637983978
-0.0809648558
-0.0347706154
-0.0869831815
-0.0484652296
0.0642046034
-0.0045622420
0.1663132906
0.2117810249
0.0468149334
0.0084753251
-0.1023211926
-0.0242283605
0.1891663373
-0.0299874730
-0.0715428591
-0.0017783113
-0.0987625122
-0.1516958028
-0.0099073788
-0.0683519170
0.0344754122
0.2329415083
-0.0443938449
0.2024507523
0.1315350533
0.0101033514
0.2097171396
-0.0167855714
-0.0245644264
-0.0316459648
0.0267209113
-0.0078734607
-0.0450949110
-0.0496615209
-0.0540396199
-0.0318976864
-0.1015896052
-0.0132900542
0.0282566510
-0.0736446381
0.1498345733
-0.0200497806
0.0538264215
-0.0626411811
-0.0894643292
-0.0778510794
0.0556370988
-0.0359744057
-0.1844628304
-0.0338752419
0.1557509154
0.1906365454
-0.0182960909
0.1572830230
0.1409143358
-0.0987824053
0.1818051636
-0.0219236128
-0.0189256165
-0.0239739027
-0.1102863848
0.0246986691
0.1346801072
0.0221958123
0.0135405809
0.1176786050
0.1680486798
-0.1337596327
-0.1499343067
-0.1213052571
0.1818862855
-0.0760028064
0.1964909285
-0.0623921342
0.0289749783
-0.1010918468
-0.0478314608
-0.0479211658
-0.1049323007
0.0081872195
0.1838009804
-0.0561031252
-0.1105780527
0.2340013236
-0.1299488693
-0.0051674256
-0.0373281687
-0.0567143522
-0.1036543772
0.0361538902
-0.0841992348
0.0376768075
0.1043788269
-0.0023161827
-0.0661730319
-0.0417636000
-0.0800070390
0.0303766001
-0.0707464144
0.0293119475
-0.0031874280
0.0742739439
0.1717968583
0.2067252249
-0.0121892113
-0.0259434544
-0.0313397013
-0.0958424509
-0.1317916363
0.0115440320
-0.0243596621
-0.0776758865
0.1367214918
-0.0653228164
0.0014782459
0.1823085546
0.0392377935
0.0191660654
-0.0672173351
-0.0137231117
-0.0934311971
0.0251377951
0.1458533406
-0.0463209972
0.1758739799
0.0261046570
-0.1301812083
-0.0617320165
-0.0284313876
0.1745594293
0.0400211997
-0.0210174099
0.1378621161
0.1859386861
0.1850180328
0.0201846622
0.0123124123
-0.0100327181
-0.0606318191
-0.0005121301
-0.0448931083
0.0178038329
0.0358504206
-0.0065326910
0.1998443156
0.2193847597
-0.0119504686
0.1547174901
-0.0385463946
-0.0484755673
-0.0142716216
0.1342950165
0.2123586982
0.0357614309
0.1936602890
0.0671514422
0.0266157035
0.2025137097
-0.0246662963
-0.0936023667
0.0408011079
-0.0712381676
0.2060229331
0.0089795981
-0.0909000784
-0.0005495521
0.0351860896
-0.0400475599
-0.0097401291
0.1442457289
-0.0159278736
-0.0857911482
0.2177605629
-0.1415417343
0.0309984852
0.0617978908
0.0038620194
-0.0468638130
-0.0711371526
0.0958961770
-0.0392031372
-0.0334524736
-0.1112758741
0.1916811913
0.0523574315
-0.1345555633
0.2062995732
-0.0911548063
0.0315237530
0.0031805618
-0.1508427858
-0.0231337156
-0.0111395512
-0.0951647237
0.2176863253
0.0272722337
-0.0560262576
0.1360926032
0.1217679903
0.1496174335
-0.1187691838
-0.0116673186
-0.0259025656
0.0229727831
0.1863486469
-0.0793601051
0.0013616716
0.2034596354
-0.0396318436
-0.0419833586
-0.0303942934
0.1006213129
-0.0364156701
-0.0734733045
-0.0273006223
-0.0119193364
-0.0154565079
0.0513983481
-0.0113407457
-0.0018745946
0.2178093493
-0.0633845702
-0.0734205619
-0.0520327874
0.1519947350
-0.0277957022
0.0209421664
-0.0165813901
0.1357642114
0.0212265961
0.1701167077
-0.0748755261
0.2207686752
-0.0169270411
0.2367504090
-0.0158764720
0.0206999052
0.0020402959
-0.0565067977
0.1735595763
-0.0400160998
-0.1225268692
0.0180470571
-0.0310596377
0.0200318657
-0.1333931535
0.1848825663
0.2236444354
0.1484361887
0.1741801351
0.2064844519
0.0621410012
-0.1174702123
-0.0037378953
0.0302359667
0.0234793033
-0.0325801559
-0.0086844834
0.0273569431
0.1524849534
0.0240088664
-0.0093638636
-0.0013887151
-0.1237491667
-0.0955223963
-0.0854706988
0.0089555010
0.0146150049
0.0143008381
-0.1757662594
0.2134444565
-0.0458169840
0.0410025381
0.1887026578
0.0399042629
-0.1297417879
-0.0111121172
-0.0123711461
-0.0071195606
0.0069200937
-0.0635999441
-0.0440688320
-0.0460375287
0.0581861027
0.0018374005
-0.0146259693
-1.9224720001
-0.0723347887
-0.0761848837
-0.0202601925
0.0406194367
0.0330942422
-0.0280161798
0.0678436309
0.1326988041
0.0982008874
0.0382748246
-0.0253721606
0.1000622809
0.0754195079
0.0714447573
-0.1186294258
-0.0230709184
0.0906664506
0.1095091552
0.1734562069
0.1183912456
0.0891677886
-0.0111791901
-0.1001026407
-0.0066435910
-0.0000815929
0.0386047252
0.0506194495
0.1105827168
0.1014977768
0.0369254872
0.0217465442
-0.1191437021
0.0830563083
0.0982646272
-0.0830937624
0.1568513960
0.0715101510
0.1764249057
0.0927565098
0.0660951510
0.0258406997
0.0925826505
0.1145587862
0.0406181104
0.0288891643
-0.1065564007
-0.1052155718
0.0205163341
-0.0171966515
-0.0286029708
0.0785562322
0.0299768727
-0.0384219959
0.1306486577
0.1335135698
0.0279064942
-0.1075700969
-0.0072782403
0.0202008784
0.0149346329
0.0627853647
0.1151961312
-0.1740095764
0.1088273600
0.0743909925
-0.1281689554
-0.1467940360
-0.0502343215
-0.0646091029
0.1289352179
0.0180766638
-0.1063387468
0.1128599271
-0.0559372604
0.0873900801
0.1029470041
0.0571358055
0.1004772037
0.0220017433
0.0787026063
-0.1577122957
0.1178540140
0.1615967900
-0.0917203203
0.0080877887
0.0759202018
0.1141878590
0.0399348885
0.0569132343
0.0908549652
0.0431720428
-0.1631407738
-0.0163060240
-0.1541500390
0.0100057274
0.0237041917
-0.1216087416
0.0529433563
0.1042179987
-0.0499763489
-0.1662524343
0.0018209774
-0.0082439696
-0.0317788497
-0.1301296204
-0.1089511588
-0.1231216565
0.0668106675
0.1243167371
-0.1572038382
0.0114100520
0.0818152875
-0.0108786849
-0.1675284803
-0.1038661674
0.0490307696
0.0790571347
-0.1037023216
0.1420202404
0.0660003945
-0.0335028060
0.0055586519
0.0989698395
0.0092320340
-0.0202151071
0.1120921150
0.0174698383
-0.0166509300
-0.0215689149
0.0761369914
-0.0994187817
0.1075798869
0.0746602044
-0.0394895524
0.0548626706
0.1041899547
0.1521548331
0.0963473246
0.0211348124
0.0451825596
-0.0341435932
0.1485288590
0.0906103700
0.1215674728
0.0904742256
0.1131626740
0.0577845164
0.0735827908
-0.0052204123
0.0852396041
0.0529795736
-0.1339306235
-0.1204578727
-0.0029396310
0.1483950317
0.1218785495
0.0990947112
-0.0751317367
0.1155128852
0.1144554168
0.0249793213
0.1446904987
0.1630339026
0.0438547917
0.1012933627
0.1016305983
-0.0923253074
0.0446114019
-0.1584539711
-0.1429759264
0.1212161779
-0.0579041466
0.1145310104
0.0863090903
-0.0284296107
-0.0131722922
0.0380346328
0.0372022651
0.0975504071
0.0472944565
0.0624269620
0.1162658632
0.0487099215
0.0095009562
0.1056867614
-0.0208990090
0.0342462026
0.0707992911
0.1038985625
0.2449388057
0.0474526063
0.0333814584
0.0849987343
0.1583238989
0.0543834381
-0.1054868773
0.0018263062
0.0519805923
-0.0376527309
-0.0335107781
0.0489896536
-0.1459299028
0.0238322783
0.0263254978
0.0666399226
0.0760483295
0.1248565465
-0.1421392113
0.0433827043
0.0511310659
-0.0048307716
-0.1841265857
0.1156738251
0.1684398651
0.0977614373
-0.1160925552
-0.0072956388
0.0229389798
0.0787780657
0.0105159767
0.0579194799
0.1008425131
-0.0055107106
0.1133776307
0.0142049845
-0.1235018894
0.0493598506
0.1235300228
-0.1442411691
0.1318617463
-0.0293212440
0.0622582287
0.1509615630
0.0933213383
0.1208608374
0.1022950783
0.0075902943
0.1378006637
0.0285359528
0.1214126870
0.0044404524
0.0992629901
0.0800939649
0.0699730515
-0.0166508406
0.1062012985
0.1194847077
-0.1896529347
-0.1750510931
0.0915366635
-0.0375977941
0.0569158532
0.1155145094
0.0843911618
0.0224855859
0.0206594337
0.1341955960
-0.0877292976
0.0930741876
0.0118321516
-0.0020384602
0.1082474440
0.0395186916
0.0878351033
0.0854634866
0.1319652796
-0.0175888911
-0.1708368361
0.0286487173
-0.0496904962
0.0578604974
0.2116176337
0.0901549011
0.0625641868
-0.1759627908
-0.0146308122
0.0468617901
0.1330551058
-0.0832193941
-0.1056867763
0.1066999361
0.0069506527
-0.0255375244
0.1439661980
0.0630945638
0.0913969055
0.0668333918
0.1018180773
0.0691126660
-0.1408336014
-0.1268435866
0.0028073976
-0.1286837906
0.0490516350
0.0420450419
0.0208346453
-0.1593077183
-0.1491032243
-0.0337425619
-0.1092530340
-0.0660555065
0.1139202118
-0.1574206799
0.0297298245
0.1938443035
-0.0464236140
0.0364009738
-0.0694830418
0.0310270265
0.0978606418
0.0364109278
0.1059896052
0.1024611592
0.1084263325
0.0380239449
0.0202707034
0.1091352180
-0.1132252738
0.0975300595
0.0719682649
0.0792488977
0.0134650795
0.0923679546
0.1711554229
0.0220818967
-0.0088244500
0.1065444201
0.0957205296
-0.1649681330
0.1123875007
0.1735842228
-0.1562834233
0.1073343530
0.0111077344
0.0319682844
0.1109907627
-0.0140007129
0.0094243214
0.1109149978
-0.1422630101
-0.0338224769
0.1204684898
-0.0998298153
-0.0279769842
0.0350416303
0.0522144325
0.1910162419
0.0092812143
0.0723023415
-0.1418255568
0.0326037891
0.1172314584
-0.1543992609
-0.0021276651
-0.0151669215
0.0183869563
0.0208663549
0.0314135812
0.1114236489
0.0879346505
0.0578915887
0.0262329094
-0.0179109313
-0.0021542250
0.1029220521
-0.1435922235
0.0657811016
0.1131964996
0.0993225574
0.1109063849
0.1040689647
0.0914930403
0.0403550304
-0.0345131680
-0.0224639252
0.0403522439
0.1003981754
-0.1065711007
0.1727391630
-0.1422346532
0.0657000616
0.0547803603
0.0482612588
0.1149497703
-0.0280621555
0.0090054255
0.1324884295
0.0317068174
0.0090826042
-0.0255377833
0.1172380894
-0.0909335688
-0.1444513202
-0.1511921138
-0.1649385989
-0.1387271732
0.0666412637
0.1931761354
0.0825760961
0.0523256585
0.0583180487
0.0444275029
0.0216388814
0.1075767651
-0.1486211419
0.0232937783
0.0812291503
0.1391766518
0.1221783310
0.1176100820
0.0608263649
0.1884143651
-0.0272003170
0.1125146523
0.1520265490
-0.0830022618
-0.0204446875
0.1027027890
-0.1171257421
0.1302605867
0.1346258670
0.0390352085
0.1979722530
-0.0232027173
0.0247582961
0.1280171871
0.0263875350
-0.0436729491
0.1016144380
0.0217600260
0.0003851338
2.5083360672
0.1629305482
0.2392295301
0.0228731502
0.0839806721
-0.0053719282
0.0799611211
0.0835309401
-0.0711904243
-0.0472136326
0.0410495549
0.1728975624
0.0328895077
-0.1080599725
0.1708068550
0.1506459117
0.0056876098
0.0023758872
-0.0407951176
-0.0536811352
-0.0470800251
0.0073921951
0.1111733243
0.2257040590
-0.0296722539
0.0127966879
0.0121430820
-0.0813102946
-0.0056263721
-0.0133322617
-0.0647471398
-0.0246047806
0.2188105583
-0.0534826890
-0.0553160459
0.0326947533
-0.1426851153
0.1918411553
-0.1299843788
-0.0445004068
0.0273001995
-0.0160355736
-0.0535824299
-0.1555588990
-0.0187242739
-0.0243571382
0.2095116973
0.1875373572
0.0176925715
-0.0464101844
0.1152773201
-0.0555057712
0.0269505773
0.1356032491
-0.0843537971
-0.1032310873
0.0213553049
0.1714081317
-0.0223288443
-0.0080094123
-0.0089895343
0.1151318252
0.1018933728
0.2042716891
-0.1240538210
0.0643534735
0.1782864630
0.1940689832
0.0503508113
-0.0345361903
0.0430707708
-0.0119070448
0.1464317441
-0.0408659652
-0.0229170863
-0.0024802855
-0.0297846813
-0.0213128440
-0.0556932352
0.0113904597
-0.1213067695
0.1652774811
-0.0936336890
-0.1828544736
0.1858311146
0.0018091841
-0.0096154297
-0.1277372986
0.1234996095
0.0509787127
0.0035206049
0.0009303368
0.1513761878
0.1573934555
0.1730131656
0.0396898128
0.0000077459
0.2215095460
0.0025163454
0.1407256424
0.0535696261
0.2447679490
0.1062846109
0.0333281681
0.0148899676
0.1797574759
0.1666731238
0.1726910323
-0.0388210304
-0.0344272442
0.1969291121
-0.0181578863
-0.0414259285
-0.0501890704
0.1522995979
0.2392496169
-0.0344275497
0.0001479900
0.1550636142
-0.1032369807
0.1471089572
0.0276694689
0.0451668687
-0.0699556246
0.0021701327
0.0353601351
-0.1046939790
-0.0676299557
0.0944282264
-0.0021336735
-0.0281475931
0.2362363040
0.0284803454
-0.0620037951
0.0505075976
0.1542897820
-0.0530946590
-0.2177645117
-0.0201616529
-0.0546391904
0.0073360805
-0.0114303697
-0.0877746046
-0.0043515526
-0.0969756767
0.0114314212
-0.0512170494
-0.0490803048
-0.1052247360
-0.0671876296
0.0702048615
-0.0433304533
0.1227410957
0.2124772668
-0.0151230637
-0.0496341921
-0.0574160106
0.0112116067
0.1764219999
-0.0236350764
-0.0946650580
-0.0208122637
-0.0929338187
-0.2032297701
0.0116108777
-0.0875040963
0.0405708775
0.2239051014
-0.0201934073
0.2352772206
0.1619815826
0.0575423166
0.1370705068
-0.0246178415
-0.0078271739
0.0073907217
0.0295891576
-0.0245574005
-0.0721486285
-0.0440252461
-0.0568676367
-0.0101366807
-0.0788766295
-0.0464652255
-0.0147734676
-0.0481469892
0.1228026599
0.0092324894
0.0146057345
-0.0298640672
-0.0544436611
-0.0421891846
0.0392706282
-0.0521460064
-0.1178206429
-0.0480697453
0.1520918310
0.1269928366
-0.0699964315
0.1017679423
0.1740501523
-0.0627431870
0.1682331264
0.0288841836
-0.0513356514
-0.0353115164
-0.1437407434
-0.0316890851
0.1427663118
-0.0598906167
-0.0155897569
0.0904861093
0.2494283020
-0.1449120641
-0.1217325181
-0.0956622660
0.2020887285
-0.0381827168
0.1289755702
-0.0726422891
0.0429753475
-0.0398157425
0.0332037769
0.0076088849
-0.1585229188
0.0385867767
0.1885892600
-0.0818993002
-0.1408570856
0.1912590563
-0.0811808333
0.0336217172
0.0250532161
-0.0924216807
-0.1474574208
-0.0097797588
-0.0598077998
-0.0225059632
0.1016840413
0.0243106373
-0.0720714480
-0.0563870743
-0.0138213662
-0.0251775458
-0.0441942215
0.0614350028
-0.0003910322
0.1424794644
0.2278482020
0.1741757542
-0.0775711387
0.0346064307
-0.0436111875
-0.0857081264
-0.1544940025
-0.0171829015
0.0365291238
-0.1294373423
0.2217203975
-0.0815176293
0.0474219061
0.1176471189
0.0827863738
0.0243817884
-0.0226827152
-0.0394776836
-0.1172754392
0.0345345996
0.2367004305
-0.0303832442
0.1970105916
-0.0489522070
-0.1254245937
-0.0837051347
0.0059238230
0.2294671237
0.0202236995
-0.0370763801
0.1031075343
0.1895799935
0.1994043887
-0.0619468354
-0.0318350233
0.0041616890
-0.0091002937
-0.0135337375
0.0052045528
0.0109562166
-0.0206996538
0.0596965700
0.1819837093
0.2039082497
0.0096098324
0.1456470191
0.0360164531
0.0448313281
0.0234598201
0.1914484650
0.2218652517
-0.0294784494
0.1259123087
0.0719612762
0.0210547708
0.2093528211
0.0165619310
-0.0268498994
0.0565768890
-0.0892437622
0.1359365433
-0.0129970629
-0.0511140525
0.0008921393
0.0040351548
-0.0697309151
-0.0216824431
0.1591370553
0.0144614754
-0.0960752144
0.2084285170
-0.0853289813
-0.0249915421
0.0296618957
0.0419670790
-0.0618862100
-0.0667839572
0.1677650362
-0.0492466949
-0.0513036065
-0.1044530272
0.2090463936
0.0526023135
-0.1312767714
0.2018620372
-0.0791603401
0.0241872594
0.0564369000
-0.1232924238
-0.0021023971
-0.0046136514
-0.0230243858
0.1707907617
-0.0246641804
-0.0451467335
0.2007854581
0.1963448077
0.1106270254
-0.0857112035
-0.0555204302
0.0130454935
-0.0401399359
0.1694193631
-0.0686846673
-0.0648333356
0.1579238176
-0.0174112134
0.0109692430
0.0273251217
0.1143504977
-0.0729606077
-0.0267081093
-0.0301040448
-0.0229471717
-0.0278994944
0.0392179340
-0.0338247940
-0.0683254600
0.2031921744
-0.1311578304
-0.1078563556
-0.1012407839
0.1600933820
-0.0565990992
0.0301298164
0.0085803308
0.1502226591
0.0029068768
0.1448058784
-0.0224128626
0.1892415583
0.0469276495
0.1915504634
-0.0519689135
0.0307857227
-0.0199789014
-0.0532773249
0.1033373028
-0.0306531880
-0.1082531512
-0.0418758169
0.0305097383
0.0430990905
-0.1071293354
0.1736361831
0.1631366760
0.1637871861
0.1561105847
0.1936029196
0.0253477525
-0.0598914064
0.0393862948
0.0677819923
-0.0277571436
-0.0691696331
-0.0240958259
0.0192722287
0.1731259376
0.0083426656
-0.0205727220
0.0139690675
-0.1703040153
-0.0850800276
-0.0554235876
-0.0281638056
0.0092546409
-0.0116001926
-0.1307426393
0.1898055226
0.0068864361
0.0664311647
0.1839199364
0.0257990677
-0.0791372508
0.0351207443
-0.0459925309
-0.0110082272
0.0472059213
-0.1001767367
-0.0307048112
0.0437779278
0.1261119097
-0.0271765701
-0.0152759068
-1.9444026947
-0.1231515706
-0.0690616220
-0.0222850610
0.1398042887
-0.0217068437
-0.0934854448
0.0874361545
0.0776702017
0.0627601743
-0.0116348807
-0.0829804242
0.1928579807
0.0912364200
0.0792814791
-0.1240532249
0.0066768783
0.1122129783
0.1408637166
0.1817342043
0.0762880370
0.1108673438
-0.0000462805
-0.1441356689
-0.0020211434
0.0125527503
0.0962146968
0.1158658266
0.0567415953
0.1027797535
0.0342039391
0.0496692881
-0.1556450874
0.0375404209
0.1220592037
-0.0424986221
0.0859102607
0.0565203764
0.1688070893
0.0932694823
0.0869911984
0.0598789603
0.0546092018
0.1587944925
0.0408204831
0.0204118025
-0.0959661454
-0.1155949384
0.0690830797
-0.0257214848
0.0169105548
0.0974935740
0.0893266499
-0.0540043227
0.1012606546
0.0961273089
0.1150262132
-0.0923029333
0.0262624398
0.0132647417
-0.0088988412
0.1202556118
0.0609035939
-0.1267909706
0.1706553698
0.1036175042
-0.1566934735
-0.1536553353
-0.0016351892
-0.0396229923
0.1412624866
-0.0192078184
-0.1512133926
0.0914605260
-0.0639761686
0.0593246557
0.1333587170
0.0424575917
0.1133183166
-0.0350050069
0.0611122288
-0.1488445848
0.0670665428
0.1149236336
-0.1021046713
0.0345163010
0.1321639568
0.0716801882
0.0697266683
0.0167422555
0.0079781506
0.0062355604
-0.1557577103
-0.0739682391
-0.1643155366
0.0398321748
-0.0046291160
-0.1841080785
0.0574023910
0.0552239046
-0.0582533702
-0.1521752924
-0.0547072589
-0.0369527712
0.0137259895
-0.1441768110
-0.1639378518
-0.0335273631
0.0759056285
0.0511463843
-0.1310751140
0.0012081623
0.0405259170
-0.0102390107
-0.1448875517
-0.0918114930
0.0598563552
0.1074214205
-0.1020737290
0.1548242271
0.0585090816
-0.0230667554
0.0325618908
0.1476446837
-0.0357244723
-0.0049001952
0.1189550385
0.0379297435
-0.0034192291
-0.0074476581
0.0564274527
-0.1461356133
0.0810660124
0.1148000732
0.0332567729
0.0938396230
0.0967305973
0.2077754885
0.0368038900
0.0978811309
0.0294381492
-0.0172639973
0.0764294192
0.0517820977
0.1043863297
0.1060753092
0.0529949106
0.1163335145
0.0811470598
-0.0009891328
0.0750656351
0.1077578664
-0.0488980860
-0.1010718942
-0.0640239567
0.1759392321
0.0491824076
0.0525729023
-0.0344218872
0.0526190177
0.0853543878
-0.0034503238
0.0996871293
0.1521994025
0.0037680939
0.0714800730
0.0696765408
-0.1040360704
0.0258307755
-0.1553650498
-0.1607620567
0.1071995273
-0.1522275805
0.1063671559
0.1321359128
-0.0092532337
0.0371367522
0.0163567234
0.0867664218
0.0402235575
0.0977423117
0.0297209583
0.1022998840
0.0447757877
0.0132460650
0.0809676647
-0.0391782895
0.0029676703
0.0749790817
0.0296802782
0.2865114510
0.0992743596
0.0481540859
0.1310895234
0.1411051452
0.0909226760
-0.0541187674
-0.0200795084
0.0699136704
-0.0185452979
-0.0093549052
0.0722217336
-0.1384361237
-0.0253869798
0.0100877238
0.0809019431
0.1642699540
0.1714263111
-0.1352521032
0.0422054306
0.0892676786
-0.0294615328
-0.1917379200
0.1429969668
0.1633269489
0.1395808309
-0.1437247247
0.0745107457
0.0743581057
0.1324077845
0.0656104833
0.0927049145
0.0326771624
-0.0130384825
0.1593376994
0.0810053498
-0.1394793093
0.0976836905
0.1367167234
-0.1450826228
0.0943672135
-0.0266219266
0.0434703976
0.1415292770
0.1260343790
0.0947310403
0.0585380569
-0.0074703679
0.1162971258
0.0242021345
0.0970215574
-0.0065120659
0.1012051925
0.0438415371
0.1271962076
0.0303786770
0.0888490155
0.0831490904
-0.1816766411
-0.1774913222
0.0563236400
-0.0515631810
0.0847909600
0.0442587808
0.0704192445
0.1003803983
0.0006412316
0.1135649830
-0.0953258127
0.1131816804
-0.0261011757
-0.0174566321
0.1189864427
0.0097702658
0.0465093516
0.0809161961
0.1130955219
0.0523686521
-0.1268357635
0.0488502011
-0.0514908321
0.0528527051
0.1922928244
0.0709008947
0.1038026959
-0.1754392236
0.0181963425
0.0235532094
0.0706941783
-0.1079842746
-0.0612347238
0.0973960161
0.0234238897
0.0178197399
0.1912022978
0.0501210988
0.0816244930
0.0595891476
0.0387559831
0.0128930015
-0.1304794103
-0.1386527121
0.0131949726
-0.1547546387
0.1036708876
0.0046222839
-0.0155103588
-0.1483263373
-0.1661455631
-0.0069698878
-0.0438122526
-0.0757297426
0.0254384968
-0.1071218103
0.0263458658
0.2493663281
0.0377505124
0.1086496711
-0.0661274642
-0.0294210501
0.0748580322
0.0915661529
0.0195597503
0.1026626080
0.0498721078
-0.0006596082
0.0947378054
0.1208323315
-0.1269913465
0.1131813973
0.1051081568
0.0840027556
0.0666045025
0.0607939176
0.0980767310
-0.0218947269
0.0314090736
0.1691135913
0.1581236422
-0.1705205292
0.1093987450
0.1713186055
-0.1466404200
0.1113731414
0.0340682752
0.0770229474
0.1674042046
-0.0218482744
0.0084414016
0.0588200651
-0.1314681023
0.0512445085
0.0614498593
-0.1099293530
-0.0686804876
-0.0232739281
0.1205188036
0.1921212524
-0.0319712572
0.0820755213
-0.1657499969
0.0396065488
0.1148163378
-0.1462786347
0.0242357496
0.0510616750
-0.0250264425
0.0249125622
0.0756478459
0.0598225556
0.0358112454
0.0394973755
0.0574605279
0.0025620437
0.0353899151
0.0182066616
-0.1203707382
0.0665789321
0.1506124586
0.0542358011
0.1260076016
0.0453447253
0.0835811570
0.0516702048
-0.0031847786
0.0248324629
0.0323137306
0.1384680867
-0.1508292705
0.1947064102
-0.1033346131
0.0553231053
0.0768863335
0.1048934236
0.0383855067
-0.0598560534
0.0528875664
0.1234304756
0.0189274512
-0.0047455477
-0.0399571992
0.1211775988
-0.0608179942
-0.1419138610
-0.1129408032
-0.1739844382
-0.1577082127
0.0891517550
0.1916093677
0.0816993713
0.0417765453
0.0276389904
0.1333918124
-0.0182541050
0.1063456982
-0.1312385798
-0.0216840748
0.0520134270
0.1691856831
0.1533996612
0.1323131621
0.0690677762
0.1322949380
-0.0032999439
0.1290361434
0.1614730358
-0.1280933321
-0.0014183904
0.1011386439
-0.1567824632
0.1499623060
0.1859568506
0.0243207645
0.1832795441
0.0429854989
0.0978033170
0.1055336297
0.0019769240
0.0157983173
0.0550725460
-0.0660096705
0.0000314006
2.5108418465
0.1219170913
0.2027456164
-0.0239630155
0.1381820738
-0.0078458805
0.0764538199
0.0504260249
-0.0763688385
-0.0548548996
-0.0204544254
0.1344483793
0.0365270115
-0.1175939888
0.1406010538
0.2008019835
-0.0463011339
0.0302378405
-0.0801578686
-0.0800698102
0.0334239155
-0.0446535163
0.1250699311
0.2307693213
-0.0182722379
0.0383529402
-0.0225561019
-0.0294819716
-0.0260530114
-0.0531864353
0.0197805297
-0.0228291340
0.2072273940
-0.0636946261
-0.1082635969
0.0709272027
-0.1131300852
0.1584267318
-0.1664171815
-0.0703874156
-0.0126963537
-0.0338301621
0.0234406218
-0.1420625299
-0.0108141629
-0.0744857118
0.2143826336
0.2176744640
0.0653882846
-0.0134053361
0.1056837440
-0.0685102642
-0.0368097574
0.1484470218
-0.0485526212
-0.1733120382
0.0095567415
0.1786237210
0.0144381439
0.0012950900
-0.0195107013
0.0903246999
0.0592173785
0.1881836802
-0.1064439565
0.0487021431
0.1898189783
0.2172204405
0.0573686659
0.0315209553
0.0278738122
-0.0277168006
0.2161770910
-0.0549803562
0.0541666001
-0.0069793737
-0.0602143444
-0.0351275541
-0.0543200038
-0.0295868721
-0.1039055362
0.2350652963
-0.0780489594
-0.1477101296
0.2115921378
0.0298472289
-0.0237688869
-0.1181596890
0.1555053890
-0.0224174317
-0.0454590507
0.0404484980
0.1781851947
0.1292314827
0.1532216668
-0.0092976354
0.0114411144
0.1804235429
0.0489562787
0.1361747533
0.0612680465
0.2380589843
0.1156305671
-0.0402329899
-0.0146714356
0.1665652245
0.2067971230
0.1340645105
-0.0065936428
-0.0633521825
0.2130959779
-0.0071033076
-0.0490330905
-0.0475460812
0.2331626564
0.1846442521
-0.0409963056
0.0038053172
0.1515886635
-0.1402346492
0.1211470589
-0.0174346175
0.0166101735
-0.0763403252
0.0137124434
0.0035328562
-0.0757966265
-0.0523418002
0.1290044039
-0.0471272133
-0.0142963054
0.2249522656
-0.0333645605
-0.0423213840
0.0117686549
0.1246973947
-0.0926883593
-0.1763724536
-0.0796447098
-0.0548972152
0.0157475062
0.0365788266
-0.0635970458
-0.0436030477
-0.0489976592
-0.0270110872
-0.0091118589
-0.0678924322
-0.0505727008
-0.0353814736
0.0510640852
-0.0355499089
0.1236016601
0.1515781283
0.0650732517
-0.0345609225
-0.0485098809
0.0013163590
0.1555606276
-0.0736371130
-0.0985921472
-0.0243503582
-0.0390246660
-0.1573550254
0.0365675911
-0.0524177887
-0.0288718380
0.1977521926
0.0236100946
0.2083338946
0.2086470723
-0.0055521969
0.2016269565
0.0222654678
-0.0572273731
0.0207239427
-0.0461955145
0.0578432418
-0.0176541079
0.0177545454
-0.0520635284
-0.0062163915
-0.0743789524
0.0172183514
-0.0499881506
-0.0097853746
0.0942754745
-0.0321454294
0.0641118884
-0.0717455149
-0.0440284945
-0.0558367670
-0.0195943620
-0.0719361156
-0.1588458419
-0.0286350772
0.1220270172
0.1226376146
-0.0698902607
0.1439212412
0.1028273478
-0.1101580858
0.1449253410
-0.0059574717
-0.0015789396
0.0240231249
-0.1278749555
-0.0304269232
0.1831999123
0.0038767625
-0.0673442110
0.1405348480
0.2538798451
-0.0961467922
-0.1721751392
-0.0648293272
0.1830051839
-0.0577480160
0.1622546613
-0.1005366296
0.0182996877
-0.1102881655
0.0055549592
-0.0067245476
-0.1625335962
-0.0240440778
0.1954339147
-0.0932146534
-0.0989567265
0.1483649462
-0.0602305792
-0.0198684894
0.0277883410
-0.1023889780
-0.1087485179
-0.0413755476
-0.0435583070
-0.0503396839
0.1410414428
-0.0349061340
-0.0874426886
-0.0118973535
-0.0607587509
-0.0010471453
-0.0235455651
0.0505146235
0.0357589982
0.1259940267
0.1970450431
0.1650019437
-0.0907540247
-0.0201320108
-0.0333413929
-0.0900659785
-0.1469469517
0.0185608417
-0.0310240965
-0.1138288602
0.1425848901
-0.0389226489
0.0409778729
0.1917722970
0.0887549669
0.0473688245
-0.0579928122
-0.0194483940
-0.1675747186
-0.0550970733
0.2366924286
-0.0299754217
0.1738951355
0.0265162699
-0.0549780913
-0.0361686908
-0.0510853454
0.2224168777
0.0333048478
-0.0039121844
0.1122334376
0.1967016757
0.1885049045
0.0083436733
0.0169593915
0.0064845076
-0.0708786547
-0.0111492742
-0.0118201450
0.0406233519
-0.0049182652
0.0496308915
0.1940281987
0.1692352444
-0.0351775363
0.1728322953
-0.0549819730
-0.0393403023
-0.0148013551
0.1654883623
0.1504249424
0.0335513018
0.1897891611
-0.0106802825
-0.0018986264
0.2162175775
-0.0445451066
-0.0618736967
0.0297822673
-0.0392516553
0.2210735381
0.0252498835
-0.1049782187
0.0231631566
-0.0109739425
-0.1053664386
-0.0203963183
0.1344759017
0.0146027105
-0.0594300814
0.2398059964
-0.1214517504
0.0187723972
0.0416045710
0.0623048842
-0.0089938845
-0.1319450140
0.0971861333
0.0105432570
-0.0181975216
-0.1744950414
0.2487961650
-0.0328739434
-0.1075459272
0.1518641859
-0.1479015797
-0.0463346392
0.0502745099
-0.1807198673
-0.0264389068
-0.0185144376
-0.0981263593
0.1937206984
-0.0314933211
-0.0095417406
0.2048591971
0.1863019615
0.1419199109
-0.0683478713
-0.0234813578
0.0156604089
-0.0186351426
0.2153709680
0.0082197282
-0.0786713511
0.2237956822
-0.0140096312
-0.0477915779
0.0418468863
0.1505710334
-0.0313362032
-0.0794189498
0.0027505734
-0.0007429745
0.0351574011
0.0062246853
-0.0113842124
-0.0410194360
0.1456381381
-0.1192843243
-0.0983553305
-0.0535019636
0.1795372069
-0.0043726987
0.0197869353
0.0180464182
0.1400142610
0.0533565171
0.1093920916
-0.0275418628
0.1675218642
0.0470387712
0.1911696792
-0.0965512246
0.0269507151
-0.0292753801
-0.0456198119
0.1674054414
-0.0519659817
-0.0864503458
-0.0461438745
0.0191100407
-0.0000625154
-0.0620460287
0.1951436698
0.1955480129
0.1609158218
0.2037983388
0.1841316521
0.0882978216
-0.0645855144
0.0380325355
0.0401373208
0.0416024774
-0.0289256051
0.0120910546
-0.0351059809
0.1469720751
0.0385046788
-0.0333782434
0.0255956054
-0.1087570488
-0.0702237263
-0.0715101808
-0.0465116613
-0.0135514913
-0.0279368572
-0.2004013956
0.1754409224
0.0383952148
0.0338487178
0.1762352586
-0.0047526769
-0.0932663307
-0.0537019335
-0.0407816209
0.0419036336
0.0377507284
-0.0747052953
0.0411287658
-0.0311721135
0.1271430552
0.0348077752
-0.0072658905
-1.9405159950
-0.1329567879
-0.0988013819
0.0508872829
0.1398939639
-0.0033934328
-0.0967105702
0.0948280245
-0.1031618565
-0.0215665232
0.0283136163
0.2060974985
0.0075127366
-0.0850963220
0.1410498172
0.2178655565
0.0032372950
-0.0087491879
-0.1094761267
-0.0658637211
0.0374617651
-0.0034256307
0.1514739096
0.2126450837
-0.0518243685
0.0206904579
-0.0372730456
-0.0240872502
-0.0422115847
-0.0506442413
-0.0041877050
0.0130363507
0.1933236271
-0.0061789476
-0.1131416187
0.0536743924
-0.1587151587
0.1396189034
-0.1331556141
-0.0203956831
0.0214597844
-0.0420746431
-0.0307700448
-0.1184980497
-0.0242486522
0.0014919229
0.2127427161
0.2187418789
0.0522759520
0.0341631733
0.1129181087
-0.0928192213
-0.0338182114
0.1698052138
-0.1194728687
-0.1770959944
-0.0038485031
0.2045393437
0.0388980433
0.0313453898
0.0006409188
0.1509847194
0.0739689022
0.2074943781
-0.1425707191
0.0447787158
0.2126865685
0.1437308341
0.0404665843
0.0237583071
0.0563654564
-0.0456208959
0.1960662901
-0.0813594386
0.0670639724
-0.0515527017
-0.0407864265
-0.0801639259
-0.0497566052
0.0413154736
-0.1079078764
0.2203049064
-0.1031223387
-0.1547685266
0.1422916949
0.0510214083
-0.0389919057
-0.0614351146
0.1009511799
0.0451858304
0.0045043803
-0.0451173820
0.1502764374
0.1105882153
0.2391379476
-0.0467249192
-0.0254977383
0.2237105221
0.0212009363
0.1727098674
0.0522951894
0.2366116643
0.1805015653
-0.0385773256
-0.0287698377
0.1658765972
0.2063398808
0.1730003208
0.0207739174
-0.0118303373
0.2398514003
0.0249021072
-0.0129313599
0.0320414938
0.1920065433
0.2220381945
-0.0570305921
0.0104360217
0.1396652311
-0.0633005053
0.1881885976
0.0107196951
0.0424226746
-0.1445823610
0.0207037274
-0.0511659309
-0.0494799502
-0.0344178118
0.1071266904
0.0180466343
0.0115068760
0.1683190316
0.0065545193
0.0051264474
0.0373093225
0.0919403657
-0.0408641957
-0.1972880512
-0.0476743616
-0.0399547964
0.0281007625
0.0387750454
-0.0769732893
-0.0651468039
-0.1112843975
-0.0407731198
-0.0791201442
-0.0498911478
-0.0692852885
-0.0582013614
0.0710898340
-0.0765316486
0.2084290385
0.2051588595
-0.0113478955
-0.0318891965
-0.0473197214
-0.0060561099
0.1788051277
-0.0583334006
-0.0897430182
0.0068169674
-0.0483257137
-0.1507373899
0.0020167769
-0.0800841451
0.0140711786
0.1512261629
-0.0248869192
0.2314192951
0.2147971392
-0.0001429585
0.2190755308
0.0112522170
-0.0396018699
-0.0006402910
0.0086628720
-0.0144665428
-0.0505573414
-0.0632347688
-0.0008821973
-0.0061105075
-0.0624614172
0.0139897447
0.0413148068
-0.0298021529
0.1000124440
0.0069495472
0.0512235761
-0.0538712144
-0.0849002600
-0.1010136679
0.0623438694
-0.0343466476
-0.1847914904
-0.0047793533
0.1778738797
0.1787337959
-0.0501758568
0.1280595511
0.1380984336
-0.0248328876
0.1644231975
0.0027999564
0.0035182652
0.0061986749
-0.0739216879
0.0170517527
0.2266032845
-0.0643753484
-0.0531662852
0.0912170410
0.1768365949
-0.1282189041
-0.1778633893
-0.1314975023
0.2241939157
-0.0381489135
0.1912838519
-0.0304285903
-0.0016446428
-0.0497347414
0.0218679868
0.0283192024
-0.1549503058
0.0520064533
0.2140591741
-0.0947736949
-0.0751314089
0.1630775928
-0.1409628689
-0.0531707555
-0.0514397286
-0.0714486465
-0.1497589201
0.0381535999
-0.0909788907
0.0143852606
0.1152739748
-0.0523249321
-0.0341315381
-0.0199539959
-0.0102428952
-0.0050860127
-0.0334206820
0.0215415377
0.0331925191
0.1017351076
0.1649150252
0.2238049358
-0.0640492812
0.0312813483
-0.0361487046
-0.0225928519
-0.0844541118
0.0363250636
0.0224874355
-0.1372001171
0.2097268701
-0.0059556677
0.0443375036
0.1675044000
0.0443242304
0.0202625953
-0.0613138303
-0.0631147623
-0.1642317474
-0.0059593460
0.1673421264
-0.0025548602
0.1397322863
-0.0182087068
-0.1164991930
-0.0566917770
-0.0358832441
0.1652091891
-0.0127091939
0.0056513050
0.0791957378
0.2045791745
0.1275422126
-0.0457325503
0.0148264831
0.0081380513
-0.0627843440
-0.0332805626
0.0447336473
0.0448660962
0.0018634225
0.0119166123
0.2130767852
0.1927002221
-0.0295949448
0.1495124102
-0.0256543662
-0.0046010846
0.0208193194
0.2204799205
0.1860723346
-0.0029427605
0.1783719361
0.0425318107
-0.0065085394
0.2128643841
0.0075029694
-0.0201479774
0.0178113226
-0.0782610252
0.2221679986
0.0033798839
-0.0671576858
0.0313348211
-0.0196409803
-0.0921128020
-0.0280823223
0.1381846219
0.0119411312
-0.0853403434
0.1999136806
-0.1083171219
0.0361648314
0.0750467256
-0.0145393312
-0.0169564560
-0.1006824374
0.1630232036
-0.0343862288
-0.0198040493
-0.1514945924
0.2373156399
-0.0113405176
-0.0835644752
0.2196433395
-0.1492932439
-0.0451652631
0.0223904196
-0.1500658542
0.0266764518
-0.0297261626
-0.0046025682
0.1862019598
-0.0178129021
-0.0564636439
0.1427003890
0.1413170099
0.1931171268
-0.0252847094
0.0358239785
0.0290110204
0.0094873235
0.1877123415
-0.0426228195
-0.0192470364
0.2075027376
-0.0336335562
-0.0052880314
0.0427985340
0.1379088610
-0.0058302698
-0.0369588435
-0.0206102543
-0.0586244501
-0.0066278027
0.0306406692
-0.0201783217
-0.0455934629
0.2117597163
-0.1156240702
-0.1035862565
-0.0722729340
0.1816704273
-0.0059094303
0.0304149296
0.0338970609
0.1474935859
-0.0360329412
0.1227278411
-0.0694974214
0.2111147046
0.0358757041
0.1644236296
-0.0373857319
-0.0259166975
-0.0516129881
0.0089700744
0.1023380980
0.0336089209
-0.0469717234
-0.0414515622
0.0030053935
-0.0457361490
-0.1400330365
0.1649929285
0.1494750381
0.2048798800
0.2361859381
0.1813910604
0.0116608161
-0.0709387586
-0.0013555381
0.0467364639
0.0283713508
-0.0965442881
-0.0312799104
-0.0447856896
0.1761620492
0.0450902060
-0.0065104938
0.0162644200
-0.1167324856
-0.1101300344
-0.0793291926
-0.0073318030
0.0084284265
0.0119237248
-0.1830361634
0.2199466676
-0.0247682463
0.0289838016
0.1986343861
0.0587812103
-0.0745721981
-0.0471935160
-0.0965397283
0.0429020375
0.0413016602
-0.1170994490
0.0364395678
0.0031169925
0.1527137011
-0.0214990117
0.0426610075
-1.8961299658
-0.0584214889
-0.0712798238
-0.0248684101
0.0635258108
-0.0174616370
-0.0408849530
0.0812480748
-0.0740483254
-0.0217895508
-0.0133267175
0.1457514018
-0.0049863406
-0.1254459620
0.1516334265
0.1787005365
-0.0037951134
0.0280872155
-0.0956300348
-0.0694910139
0.0431555025
-0.0434805825
0.1332083344
0.1849107742
-0.0382986814
-0.0059382804
0.0176646970
-0.0820132121
-0.0104231667
-0.0036942761
0.0047527775
-0.0058511579
0.1599121690
-0.0749046504
-0.1431545764
0.0464967899
-0.1541247815
0.1652204841
-0.1539783478
-0.0621522740
0.0135344760
0.0013309639
-0.0253811311
-0.1011715755
0.0027567060
-0.0173395257
0.1753273606
0.2118518800
0.0006788293
0.0290773325
0.0934883207
-0.0746738464
0.0090150777
0.1897262037
-0.0819577277
-0.1415283829
-0.0143710906
0.2025538832
-0.0286834538
-0.0184665546
-0.0094275689
0.1379153132
0.1217906326
0.1541682631
-0.0613491721
0.0340127237
0.2098302841
0.1532204598
0.0321483016
-0.0076409401
0.0140581531
0.0043286774
0.1959527582
-0.0336592346
0.0500194989
-0.0377918668
-0.0511418134
-0.0511799082
-0.0938998982
-0.0020865139
-0.1145071909
0.1584446430
-0.0422721393
-0.1234294921
0.1662952006
-0.0114481030
-0.0415206812
-0.0982610062
0.1725084484
0.0537289083
0.0303197596
0.0201501139
0.1436154097
0.1061766595
0.1589901894
0.0170794707
-0.0042304834
0.1793207079
-0.0018896443
0.1568509340
0.0099867778
0.2028025240
0.1013945639
0.0009874183
-0.0495934524
0.1516027153
0.1502888948
0.1282914579
0.0269284043
-0.0001130008
0.2130132020
0.0062598204
0.0313455760
0.0036763966
0.1655082405
0.1671936661
-0.0177533720
-0.0223730337
0.2094377875
-0.1373986900
0.1674048752
0.0183060393
0.0445115454
-0.1395572424
0.0641671121
0.0261694677
-0.0935556367
-0.0435435586
0.1700669676
-0.0171580166
-0.0092100445
0.2001472861
-0.0397541374
-0.0218638685
0.0364407375
0.1150757074
-0.0412170440
-0.1887996942
-0.0655077472
-0.0359592885
-0.0343828835
-0.0177773535
-0.1104876772
-0.0220523886
-0.0998828784
-0.0562174842
-0.0043945620
-0.0536160991
-0.0404091813
-0.0037207592
0.0250876378
-0.0513731055
0.1843050271
0.1250908375
-0.0098304898
0.0077791763
-0.1097890288
-0.0451309718
0.2020239681
0.0040012216
-0.0469745100
-0.0319367088
-0.0993889868
-0.1207395867
-0.0255761016
-0.0730490535
-0.0352554768
0.1745583266
-0.0054642661
0.1366122514
0.2105639428
0.0455105416
0.1485660374
0.0154350586
-0.0619088411
-0.0128216846
0.0309405923
0.0304489043
-0.0467944592
0.0242354088
0.0233386774
-0.0527537689
-0.0860483646
-0.0350396857
-0.0474941619
-0.0106317410
0.1648192853
-0.0148953209
0.0475226305
-0.0592156202
-0.0765694529
-0.0568799004
0.0082711931
-0.0351249725
-0.1209945306
-0.0377214588
0.2044527829
0.1210413799
-0.0699643269
0.1025210470
0.1640869081
-0.0698575526
0.1349974871
0.0268872622
-0.0426096469
0.0357315540
-0.0767329559
0.0238797851
0.1150771379
-0.0647505894
0.0155417044
0.1426730901
0.2101418525
-0.0830706209
-0.1357400715
-0.0641013533
0.1294485331
-0.0613112934
0.1394173205
-0.0580045804
0.0176271200
-0.1198144332
0.0261749290
0.0291732270
-0.1632486284
0.0531056076
0.2154393047
-0.1004711688
-0.0860916004
0.1712970883
-0.1044134796
-0.0131331356
-0.0148741007
-0.0639047772
-0.1197697744
0.0175330900
-0.1147542223
-0.0337860286
0.1366955787
-0.0484071746
-0.0882445946
-0.0191517174
-0.0771048069
-0.0283403192
-0.0949279442
0.0161806606
0.0097877830
0.0889951587
0.1702839136
0.1901695877
-0.0520567186
0.0343019068
-0.0322003588
-0.0281658098
-0.1516125947
-0.0367821120
-0.0307614449
-0.1009266004
0.1738325506
-0.0806728750
-0.0058147032
0.1517885923
0.0120292054
-0.0203867946
-0.0328315012
-0.0637708381
-0.1249172688
-0.0511160493
0.1434323490
-0.0469254293
0.1930838078
0.0325310752
-0.0775189102
-0.0738947839
0.0175235085
0.1856961548
-0.0380975790
-0.0019192389
0.0993742123
0.1735770851
0.1998886466
-0.0532675497
0.0052507371
0.0445266701
-0.0765312314
-0.0429784134
-0.0409533419
-0.0012035356
0.0327775180
-0.0247983895
0.1998497099
0.2209930122
0.0337761268
0.1508121043
-0.0098836087
-0.0512569509
-0.0285363626
0.2175435573
0.1712489128
0.0428568870
0.1853948683
0.0272228532
-0.0460751057
0.1361063868
-0.0045337179
-0.0174104180
0.0172960628
-0.0690086037
0.1521028280
0.0514522120
-0.0308795385
0.0348805934
-0.0451942235
-0.0621937551
0.0375101306
0.1005541757
-0.0075373026
-0.0798895732
0.2056327760
-0.0992639139
-0.0326939598
0.0598511733
0.0659305826
-0.0975308567
-0.1323054880
0.1682378203
-0.0313174464
-0.0240023136
-0.1384353787
0.2072049379
-0.0275527071
-0.1539785564
0.2117693573
-0.1264909506
0.0236495826
0.0288295355
-0.0950032473
0.0126696182
0.0053387387
-0.0574820936
0.1475594938
-0.0352401286
-0.0682088956
0.1468303949
0.1055149436
0.1438508928
-0.0876669735
0.0068822247
0.0306996237
0.0138278669
0.1973659694
-0.0449874029
-0.0451194346
0.1962637752
0.0058141211
0.0186543074
-0.0293214116
0.1593921036
-0.0349753909
-0.0853999257
-0.0410603844
-0.0505125448
-0.0442773663
-0.0104881106
0.0236498453
-0.0158893131
0.1689333767
-0.1119311675
-0.1300928593
-0.0430488065
0.1115480214
-0.0104644597
-0.0355607048
-0.0249547046
0.1408800334
0.0385796688
0.1530291140
-0.0871588290
0.1910972297
0.0011344103
0.2184257656
-0.0293629877
0.0437461287
0.0277624112
-0.0546571910
0.1534423232
-0.0438758694
-0.0634089634
0.0412255004
-0.0136933709
-0.0205174685
-0.0707337633
0.2162228525
0.2045064420
0.1921262890
0.1897118390
0.2182646245
0.0158748701
-0.0851608068
0.0313046947
0.0033428723
-0.0357024334
-0.0233050771
0.0392772034
-0.0263999943
0.1432699710
0.0497063920
-0.0357175842
0.0147982016
-0.1232583672
-0.0669000149
-0.0167267695
-0.0152626187
0.0379545689
-0.0564295389
-0.1785673350
0.2028349787
-0.0217367001
-0.0044100452
0.2127313614
0.0383483991
-0.0514220148
-0.0278352592
-0.0230717808
0.0154817505
0.0201994888
-0.0928647816
-0.0275180880
0.0155415796
0.1065464392
-0.0245018490
0.0350183062
-1.9488095045
-0.0818463117
-0.0544879772
-0.0055644531
0.1019524261
-0.0035539891
-0.0339678042
0.0979701132
-0.0766834915
-0.0673666447
0.0279310159
0.1617144644
0.0251988061
-0.1134448871
0.1648146510
0.1299916953
-0.0223892238
0.0420429036
-0.0402496345
-0.1053812131
0.0189209655
-0.0183827262
0.1156103462
0.1868342310
0.0110120997
-0.0284580197
-0.0434020646
-0.1035511345
-0.0308508724
-0.0515444465
-0.0369239040
-0.0470431522
0.2273581624
-0.0370449983
-0.0838210732
0.0837501809
-0.1655955315
0.1654298455
-0.1218099967
-0.0313410424
0.0610518828
0.0093810791
0.0001737068
-0.1465782523
-0.0496020615
-0.0600107200
0.2136623412
0.1638839394
0.0372676961
-0.0021017396
0.1313655227
-0.0405388027
-0.0178807825
0.1622982323
-0.1022565812
-0.1031335816
-0.0112827662
0.1975907236
-0.0117394179
0.0373730436
0.0015421287
0.1012661979
0.0932936445
0.1667558849
-0.0944736451
0.0484224372
0.1865519285
0.1807074994
0.0573520474
0.0471737608
0.0365099870
-0.0359296352
0.1656372398
-0.0638827905
0.0073728361
-0.0164829101
-0.0268081948
-0.0761688650
-0.0105715189
-0.0463529862
-0.1128975302
0.2351364940
-0.1308674961
-0.1678295583
0.1607359946
0.0278642904
-0.1023061424
-0.0616937503
0.1632971317
0.0217714254
-0.0374897271
-0.0048881695
0.2119943500
0.1499959230
0.1901745647
0.0211272892
-0.0091544036
0.1851990521
0.0122369509
0.0873273611
-0.0010005059
0.1702331752
0.1398499012
0.0042404244
0.0077176164
0.2270656377
0.1560083330
0.2074481249
-0.0066148541
-0.0334214009
0.1867056191
-0.0077373176
-0.0259054694
-0.0046622902
0.1650355756
0.1752641052
-0.0306299459
0.0230006091
0.2108157575
-0.1220417023
0.1013605893
-0.0408009365
-0.0109800817
-0.1035937071
0.0597889610
-0.0298570320
-0.0716325641
-0.0829419568
0.1036569402
-0.0288418066
-0.0787369534
0.2021091282
0.0248747543
-0.0534726866
0.0324870907
0.1761920601
-0.0715259165
-0.1785309464
0.0088346396
-0.0545465313
0.0019389152
0.0377641469
-0.1244208589
0.0057664383
-0.0991973728
-0.0511972532
-0.0147737609
-0.0855218992
-0.0949600637
-0.0313768536
0.0876797885
-0.0581327192
0.2072157264
0.1700042188
-0.0069943359
-0.0221126005
-0.0349193551
0.0325669348
0.1231229678
-0.0289345272
-0.0662373900
0.0157050304
-0.1142324731
-0.1829303205
-0.0445188135
-0.0799605101
-0.0369264148
0.2022134364
-0.0426638573
0.1802777946
0.1985530406
0.0224354845
0.1739702225
-0.0582055412
-0.0198017359
0.0534181483
-0.0016959221
0.0219293069
-0.0157703646
0.0190964863
-0.0335298292
-0.0004587893
-0.0667165890
-0.0055790604
-0.0170386452
-0.0235530697
0.1326677650
-0.0064175953
0.0604046248
0.0026385584
-0.0673407763
-0.1100118384
0.0080078961
-0.0308211818
-0.1650628746
-0.0207065362
0.1573455036
0.1775421053
-0.0923558176
0.1231174543
0.1287850291
-0.1024676785
0.1306125224
0.0325958952
-0.0069208257
0.0017915203
-0.0840496272
-0.0183764827
0.1807919890
-0.0143846646
-0.0467419215
0.1240752041
0.2357936949
-0.0807898343
-0.1759234220
-0.0684826896
0.1806017905
-0.0543411076
0.1175440699
-0.0390991978
0.0140793417
-0.0440487824
-0.0313473344
-0.0055518141
-0.1072303727
0.0606103465
0.2069250345
-0.1153430864
-0.0756119192
0.1724887788
-0.0586147569
-0.0487346724
0.0109841060
-0.0793889686
-0.1157706305
-0.0306406189
-0.1238616183
-0.0346971154
0.1462261975
-0.0265304670
-0.0274916161
0.0063537750
-0.0427706540
0.0231453758
-0.0890406668
0.0636242479
-0.0243764240
0.0914963633
0.1620936245
0.1632343829
-0.0536344275
-0.0390686989
0.0266275797
-0.0336572602
-0.0799008906
0.0178072266
-0.0357959606
-0.0822923556
0.2114870250
-0.0253749341
0.0586198196
0.1313860714
0.0255071763
-0.0082362313
-0.0510061048
0.0159602072
-0.1945326626
0.0236107651
0.1904547513
-0.0508502014
0.2003127187
-0.0276533812
-0.1104969531
-0.0030855392
-0.0007620687
0.1819898486
-0.0306058004
-0.0263576321
0.1164390072
0.1850397289
0.1935109943
-0.0272808094
0.0383453257
-0.0030464891
-0.0317891426
-0.0403880104
-0.0230345093
-0.0336965248
0.0238198917
0.0684762970
0.1574440747
0.1889458597
-0.0013095100
0.1775505096
0.0253709592
-0.0278411806
-0.0116754258
0.2156029940
0.2054746896
-0.0391543023
0.1165275052
0.0476491302
0.0085222479
0.2330480814
0.0395794064
-0.0937199742
0.0049513741
-0.0190679859
0.2146509737
0.0396400876
-0.1304608434
-0.0195090212
0.0016490236
-0.0660044104
-0.0371657982
0.1774276793
-0.0246905740
-0.0752962083
0.1772981584
-0.1577162594
0.0093043344
0.0475431308
0.0140925255
-0.0754310861
-0.1232518405
0.0936478004
-0.0181297734
-0.0742694288
-0.1677092314
0.2401827425
0.0571061149
-0.0836112574
0.1590061486
-0.1155725941
-0.0248736311
0.0394833684
-0.1629697233
-0.0026043265
-0.0580620803
-0.0211218819
0.1931602657
0.0429421477
-0.0841487870
0.1905461848
0.1648158431
0.1884287149
-0.0349983014
0.0270809121
0.0205846578
0.0475054272
0.2295930982
-0.0817984864
-0.0606321804
0.1561649144
0.0247856695
0.0283226743
-0.0335983001
0.1448801309
-0.0835741088
-0.0839913711
-0.0201281998
0.0033761968
-0.0198703911
0.0610937513
0.0218342114
-0.0440798402
0.1651295573
-0.0989321843
-0.0616953336
-0.0357279815
0.1671223491
-0.0460339636
-0.0202674195
0.0244944338
0.1583523750
0.0552538112
0.0835395381
-0.0900034532
0.2103504688
0.0216801409
0.1437385976
-0.0591203384
0.0326329134
0.0094123287
-0.0070029949
0.0918993726
-0.0090470789
-0.0962584764
-0.0174106434
-0.0031950136
0.0017031909
-0.0664605722
0.2177551836
0.1754783839
0.2349363863
0.2268076986
0.1820260882
0.0650496185
-0.0742829069
-0.0000841161
-0.0107256249
-0.0214253739
-0.0399109274
-0.0505681112
-0.0541051552
0.1981070787
-0.0182139315
-0.0014324768
0.0293399412
-0.1486219168
-0.0733082965
-0.0240086615
0.0231888220
0.0302767381
-0.0483175106
-0.1209500507
0.2159462124
0.0046262858
0.0674726740
0.2236722559
0.0732849091
-0.0923385993
0.0384714864
-0.0833642408
0.0056430455
0.0441540703
-0.0642763451
0.0090632392
0.0078137908
0.1327263713
0.0075693550
0.0421844833
-1.9155077934
-0.0924523920
-0.1075661033
-0.0340444073
0.1177533194
0.0099662840
-0.0740213096
0.1123044714
-0.0191295091
-0.0410360880
-0.0213484615
-0.0124951433
-0.0323920920
-0.0295994412
