0.2013513148
-0.2345896214
0.0724871382
-0.0160739962
0.2613440752
-0.0024747686
0.2192820758
0.2328288108
-0.2404209822
0.2394360751
-0.2051727325
0.2632401586
-0.2276873738
-0.2456571311
-0.2589471340
-0.2288527340
0.0266098045
-0.0221034288
-0.0477555543
0.0046443450
0.1936650425
-0.2373952270
-0.2442837507
-0.1847200990
0.2011082768
0.1971024275
-0.2099657208
-0.0208524633
-0.1722728014
0.2025467306
-0.0600790419
0.2086756527
0.2523249090
0.1877714992
-0.2332650423
0.2358377129
-0.2665229738
-0.2007953525
0.2081549466
-0.2585352659
0.0594175719
-0.2076700479
0.0555523261
0.0055314642
0.0215773806
-0.2015439421
0.0045323432
-0.0030778104
0.2592070103
0.2508614659
0.2170745879
-0.1952179074
-0.2503122091
-0.2488331199
0.2435081154
0.0126005616
0.1971474141
-0.2206164300
-0.2714152932
-0.2153701633
-0.2245977074
0.2259985954
0.1922314167
0.2180130482
0.2017040849
0.2011884898
-0.2067538947
0.2108890116
-0.0385704301
0.0057258122
1.5021475554
-0.2401406914
-0.0219322834
0.2225679755
-0.0646432489
-1.6524288654
0.2477827221
0.0024926141
0.2141501158
-0.0721765086
0.2508350313
-0.0637572780
0.2466358542
0.2160274982
-0.2082450241
-0.2513901591
-0.0813166723
0.1877386868
0.2022469342
0.2388678789
0.2512649596
0.1871380210
-0.2628327310
0.0309386421
0.2206938565
0.2243086398
0.2712737620
-0.2350537181
0.2003009766
-0.0247000176
-0.0077731684
0.2559003830
0.0764219686
-0.2606852949
0.0492890291
-0.0466269925
0.1921290755
0.0085177645
-0.0194401108
-0.2481243610
0.2300478667
-0.2534036040
0.0008883066
0.2069566250
0.2636740208
0.2132243961
-0.2301110178
0.2691423893
0.2179268599
0.0276855156
-0.2362201214
0.2025794536
0.2241721004
0.1984108388
0.2664023340
-0.0106978985
0.0045649488
0.2224426568
